<?xml version="1.0" encoding="UTF-8"?>
<!-- This network was created in GeNIe Academic, which can be used for academic teaching and research purposes only -->
<smile version="1.0" id="parkinsons_updrs" numsamples="10000" discsamples="10000">
	<nodes>
		<cpt id="age">
			<state id="s1_below_42" />
			<state id="s2_42_52" />
			<state id="s3_52_69" />
			<state id="s4_69_up" />
			<probabilities>0.01719148936170213 0.04357446808510639 0.6207659574468085 0.318468085106383</probabilities>
		</cpt>
		<cpt id="Jitter_PPQ5">
			<state id="s1_below_0" />
			<state id="s2_0_0" />
			<state id="s3_0_0" />
			<state id="s4_0_up" />
			<probabilities>0.9870638297872341 0.0108936170212766 0.001191489361702128 0.0008510638297872341</probabilities>
		</cpt>
		<cpt id="Jitter_RAP">
			<state id="s1_below_0" />
			<state id="s2_0_0" />
			<state id="s3_0_0" />
			<state id="s4_0_up" />
			<parents>Jitter_PPQ5</parents>
			<probabilities>0.99625 0.003663793103448275 4.310344827586207e-05 4.310344827586207e-05 0.25 0.726923076923077 0.01923076923076923 0.003846153846153846 0.03125 0.65625 0.28125 0.03125 0.04166666666666666 0.04166666666666666 0.375 0.5416666666666666</probabilities>
		</cpt>
		<cpt id="Jitter_DDP">
			<state id="s1_below_0" />
			<state id="s2_0_0" />
			<state id="s3_0_0" />
			<state id="s4_0_up" />
			<parents>Jitter_RAP</parents>
			<probabilities>0.9998705780845556 4.314063848144952e-05 4.314063848144952e-05 4.314063848144952e-05 0.003378378378378379 0.9898648648648649 0.003378378378378379 0.003378378378378379 0.04166666666666666 0.04166666666666666 0.875 0.04166666666666666 0.0625 0.0625 0.0625 0.8125</probabilities>
		</cpt>
		<cpt id="NHR">
			<state id="s1_below_0" />
			<state id="s2_0_0" />
			<state id="s3_0_0" />
			<state id="s4_0_up" />
			<parents>Jitter_RAP</parents>
			<probabilities>0.9917601380500431 0.006773080241587575 0.001423641069887834 4.314063848144952e-05 0.2602739726027397 0.1917808219178082 0.410958904109589 0.136986301369863 0.04166666666666666 0.04166666666666666 0.5416666666666666 0.375 0.0625 0.5625 0.0625 0.3125</probabilities>
		</cpt>
		<cpt id="Shimmer">
			<state id="s1_below_0" />
			<state id="s2_0_0" />
			<state id="s3_0_0" />
			<state id="s4_0_up" />
			<parents>NHR</parents>
			<probabilities>0.9471562337437143 0.04772845500260101 0.005071961158314548 4.335009537020981e-05 0.004464285714285714 0.2366071428571428 0.7544642857142857 0.004464285714285714 0.005952380952380952 0.07738095238095238 0.9107142857142857 0.005952380952380952 0.01785714285714286 0.01785714285714286 0.875 0.08928571428571427</probabilities>
		</cpt>
		<cpt id="HNR">
			<state id="s1_below_11" />
			<state id="s2_11_18" />
			<state id="s3_18_32" />
			<state id="s4_32_up" />
			<parents>Jitter_DDP Shimmer</parents>
			<probabilities>4.581271761040865e-05 0.1233736485248305 0.873419461242441 0.003161077515118197 0.07727272727272727 0.7318181818181818 0.19 0.0009090909090909091 0.7423076923076923 0.2346153846153846 0.01923076923076923 0.003846153846153846 0.25 0.25 0.25 0.25 0.03571428571428571 0.8928571428571428 0.03571428571428571 0.03571428571428571 0.1323529411764706 0.7794117647058824 0.07352941176470588 0.01470588235294118 0.9852941176470588 0.004901960784313725 0.004901960784313725 0.004901960784313725 0.625 0.125 0.125 0.125 0.25 0.25 0.25 0.25 0.625 0.125 0.125 0.125 0.8500000000000001 0.05 0.05 0.05 0.25 0.25 0.25 0.25 0.25 0.25 0.25 0.25 0.25 0.25 0.25 0.25 0.8125 0.0625 0.0625 0.0625 0.25 0.25 0.25 0.25</probabilities>
		</cpt>
		<cpt id="PPE">
			<state id="s1_below_0" />
			<state id="s2_0_0" />
			<state id="s3_0_0" />
			<state id="s4_0_up" />
			<parents>HNR</parents>
			<probabilities>0.03076923076923077 0.3692307692307693 0.4076923076923077 0.1923076923076923 0.1398678414096916 0.7026431718061674 0.1453744493392071 0.01211453744493392 0.7142190416925949 0.279869321717486 0.005859780128604024 5.185646131507986e-05 0.9583333333333333 0.01388888888888889 0.01388888888888889 0.01388888888888889</probabilities>
		</cpt>
		<cpt id="Jitter_Abs_">
			<state id="s1_below_0" />
			<state id="s2_0_0" />
			<state id="s3_0_0" />
			<state id="s4_0_up" />
			<parents>PPE</parents>
			<probabilities>0.9989560133630289 0.0009047884187082405 6.959910913140311e-05 6.959910913140311e-05 0.9184275184275184 0.07911547911547911 0.001965601965601966 0.0004914004914004914 0.2394366197183099 0.7230046948356808 0.0187793427230047 0.0187793427230047 0.02777777777777778 0.8888888888888888 0.05555555555555555 0.02777777777777778</probabilities>
		</cpt>
		<cpt id="Shimmer_DDA">
			<state id="s1_below_0" />
			<state id="s2_0_0" />
			<state id="s3_0_0" />
			<state id="s4_0_up" />
			<parents>Jitter_Abs_ Shimmer</parents>
			<probabilities>0.9987201365187712 0.001185058778915434 4.740235115661737e-05 4.740235115661737e-05 0.2381516587677725 0.7594786729857821 0.001184834123222749 0.001184834123222749 0.009259259259259259 0.4166666666666666 0.5277777777777778 0.04629629629629629 0.25 0.25 0.25 0.25 0.9906914893617021 0.006648936170212766 0.001329787234042553 0.001329787234042553 0.2211538461538461 0.7724358974358974 0.003205128205128205 0.003205128205128205 0.002873563218390805 0.2902298850574713 0.6810344827586207 0.02586206896551724 0.25 0.25 0.25 0.25 0.625 0.125 0.125 0.125 0.125 0.625 0.125 0.125 0.03125 0.03125 0.90625 0.03125 0.125 0.125 0.625 0.125 0.625 0.125 0.125 0.125 0.0625 0.5625 0.3125 0.0625 0.08333333333333333 0.08333333333333333 0.75 0.08333333333333333 0.25 0.25 0.25 0.25</probabilities>
		</cpt>
		<cpt id="sex">
			<state id="State0" />
			<state id="State1" />
			<parents>Shimmer_DDA</parents>
			<probabilities>0.6950380296993843 0.3049619703006157 0.5789473684210527 0.4210526315789473 0.1666666666666667 0.8333333333333333 0.6666666666666666 0.3333333333333333</probabilities>
		</cpt>
		<cpt id="DFA">
			<state id="s1_below_0" />
			<state id="s2_0_0" />
			<state id="s3_0_0" />
			<state id="s4_0_up" />
			<parents>PPE</parents>
			<probabilities>0.531328320802005 0.2548036758563074 0.1974380395433027 0.01642996379838485 0.2614250614250614 0.2216216216216216 0.4353808353808354 0.08157248157248156 0.2723004694835681 0.136150234741784 0.4178403755868545 0.1737089201877934 0.5277777777777778 0.02777777777777778 0.3055555555555555 0.1388888888888889</probabilities>
		</cpt>
		<cpt id="subject_">
			<state id="s1_below_12" />
			<state id="s2_12_18" />
			<state id="s3_18_32" />
			<state id="s4_32_up" />
			<parents>age sex DFA</parents>
			<probabilities>0.25 0.25 0.25 0.25 0.25 0.25 0.25 0.25 0.25 0.25 0.25 0.25 0.25 0.25 0.25 0.25 0.004385964912280702 0.004385964912280702 0.9868421052631579 0.004385964912280702 0.005681818181818182 0.005681818181818182 0.9829545454545455 0.005681818181818182 0.08333333333333333 0.08333333333333333 0.75 0.08333333333333333 0.25 0.25 0.25 0.25 0.03571428571428571 0.03571428571428571 0.8928571428571428 0.03571428571428571 0.003846153846153846 0.003846153846153846 0.9884615384615385 0.003846153846153846 0.001373626373626374 0.001373626373626374 0.995879120879121 0.001373626373626374 0.04166666666666666 0.04166666666666666 0.875 0.04166666666666666 0.25 0.25 0.25 0.25 0.25 0.25 0.25 0.25 0.25 0.25 0.25 0.25 0.25 0.25 0.25 0.25 0.4602593010146561 0.2032130777903044 0.0002818489289740699 0.3362457722660654 0.4577205882352941 0.2077205882352941 0.04779411764705882 0.2867647058823529 0.308252427184466 0.1383495145631068 0.3737864077669902 0.1796116504854369 0.4774096385542169 0.001506024096385542 0.5135542168674699 0.007530120481927711 0.0004145936981757877 0.3121890547263682 0.09162520729684909 0.595771144278607 0.0007692307692307692 0.2807692307692308 0.3669230769230769 0.3515384615384615 0.0008333333333333334 0.0008333333333333334 0.6775 0.3208333333333334 0.0625 0.3125 0.5625 0.0625 0.616304347826087 0.0003623188405797101 0.3829710144927536 0.0003623188405797101 0.5103503184713376 0.0007961783439490446 0.4689490445859873 0.01990445859872612 0.07668067226890755 0.001050420168067227 0.2657563025210084 0.6565126050420168 0.002631578947368421 0.002631578947368421 0.9605263157894737 0.03421052631578948 0.2697132616487455 0.3629032258064516 0.0008960573476702509 0.3664874551971326 0.4537037037037037 0.1018518518518518 0.09259259259259259 0.3518518518518519 0.1715686274509804 0.001633986928104575 0.8120915032679739 0.01470588235294118 0.25 0.25 0.25 0.25</probabilities>
		</cpt>
		<cpt id="test_time">
			<state id="s1_below_37" />
			<state id="s2_37_85" />
			<state id="s3_85_124" />
			<state id="s4_124_up" />
			<probabilities>0.1979574468085107 0.2731914893617021 0.1960851063829787 0.3327659574468085</probabilities>
		</cpt>
		<cpt id="Shimmer_dB_">
			<state id="s1_below_0" />
			<state id="s2_0_1" />
			<state id="s3_1_1" />
			<state id="s4_1_up" />
			<parents>Shimmer</parents>
			<probabilities>0.9954695222405272 0.004438952956251145 4.576240161083654e-05 4.576240161083654e-05 0.1481164383561644 0.8159246575342465 0.0351027397260274 0.0008561643835616438 0.002049180327868853 0.01024590163934426 0.7397540983606558 0.2479508196721312 0.125 0.125 0.125 0.625</probabilities>
		</cpt>
		<cpt id="Shimmer_APQ11">
			<state id="s1_below_0" />
			<state id="s2_0_0" />
			<state id="s3_0_0" />
			<state id="s4_0_up" />
			<parents>subject_ sex Shimmer_dB_</parents>
			<probabilities>0.999512987012987 0.0001623376623376623 0.0001623376623376623 0.0001623376623376623 0.983695652173913 0.005434782608695652 0.005434782608695652 0.005434782608695652 0.8055555555555555 0.1388888888888889 0.02777777777777778 0.02777777777777778 0.125 0.625 0.125 0.125 0.9946428571428572 0.001785714285714286 0.001785714285714286 0.001785714285714286 0.8125 0.0625 0.0625 0.0625 0.8055555555555555 0.1388888888888889 0.02777777777777778 0.02777777777777778 0.25 0.25 0.25 0.25 0.998125 0.000625 0.000625 0.000625 0.9166666666666666 0.02777777777777778 0.02777777777777778 0.02777777777777778 0.25 0.25 0.25 0.25 0.25 0.25 0.25 0.25 0.9980670103092784 0.0006443298969072165 0.0006443298969072165 0.0006443298969072165 0.8500000000000001 0.05 0.05 0.05 0.25 0.25 0.25 0.25 0.125 0.625 0.125 0.125 0.9993421052631579 0.0002192982456140351 0.0002192982456140351 0.0002192982456140351 0.95 0.04473684210526316 0.002631578947368421 0.002631578947368421 0.6071428571428571 0.03571428571428571 0.1785714285714285 0.1785714285714285 0.625 0.125 0.125 0.125 0.998766447368421 0.0004111842105263158 0.0004111842105263158 0.0004111842105263158 0.78125 0.15625 0.03125 0.03125 0.25 0.25 0.25 0.25 0.25 0.25 0.25 0.25 0.9989837398373984 0.0003387533875338753 0.0003387533875338753 0.0003387533875338753 0.9711538461538463 0.009615384615384616 0.009615384615384616 0.009615384615384616 0.875 0.04166666666666666 0.04166666666666666 0.04166666666666666 0.125 0.625 0.125 0.125 0.9985981308411216 0.0004672897196261682 0.0004672897196261682 0.0004672897196261682 0.9006410256410257 0.09294871794871795 0.003205128205128205 0.003205128205128205 0.5033783783783784 0.4087837837837838 0.08445945945945946 0.003378378378378379 0.1481481481481481 0.7777777777777777 0.03703703703703703 0.03703703703703703</probabilities>
		</cpt>
		<cpt id="motor_UPDRS">
			<state id="s1_below_13" />
			<state id="s2_13_22" />
			<state id="s3_22_32" />
			<state id="s4_32_up" />
			<parents>subject_ age sex test_time Shimmer_APQ11 DFA</parents>
			<probabilities>0.25 0.25 0.25 0.25 0.25 0.25 0.25 0.25 0.25 0.25 0.25 0.25 0.25 0.25 0.25 0.25 0.25 0.25 0.25 0.25 0.25 0.25 0.25 0.25 0.25 0.25 0.25 0.25 0.25 0.25 0.25 0.25 0.25 0.25 0.25 0.25 0.25 0.25 0.25 0.25 0.25 0.25 0.25 0.25 0.25 0.25 0.25 0.25 0.25 0.25 0.25 0.25 0.25 0.25 0.25 0.25 0.25 0.25 0.25 0.25 0.25 0.25 0.25 0.25 0.25 0.25 0.25 0.25 0.25 0.25 0.25 0.25 0.25 0.25 0.25 0.25 0.25 0.25 0.25 0.25 0.25 0.25 0.25 0.25 0.25 0.25 0.25 0.25 0.25 0.25 0.25 0.25 0.25 0.25 0.25 0.25 0.25 0.25 0.25 0.25 0.25 0.25 0.25 0.25 0.25 0.25 0.25 0.25 0.25 0.25 0.25 0.25 0.25 0.25 0.25 0.25 0.25 0.25 0.25 0.25 0.25 0.25 0.25 0.25 0.25 0.25 0.25 0.25 0.25 0.25 0.25 0.25 0.25 0.25 0.25 0.25 0.25 0.25 0.25 0.25 0.25 0.25 0.25 0.25 0.25 0.25 0.25 0.25 0.25 0.25 0.25 0.25 0.25 0.25 0.25 0.25 0.25 0.25 0.25 0.25 0.25 0.25 0.25 0.25 0.25 0.25 0.25 0.25 0.25 0.25 0.25 0.25 0.25 0.25 0.25 0.25 0.25 0.25 0.25 0.25 0.25 0.25 0.25 0.25 0.25 0.25 0.25 0.25 0.25 0.25 0.25 0.25 0.25 0.25 0.25 0.25 0.25 0.25 0.25 0.25 0.25 0.25 0.25 0.25 0.25 0.25 0.25 0.25 0.25 0.25 0.25 0.25 0.25 0.25 0.25 0.25 0.25 0.25 0.25 0.25 0.25 0.25 0.25 0.25 0.25 0.25 0.25 0.25 0.25 0.25 0.25 0.25 0.25 0.25 0.25 0.25 0.25 0.25 0.25 0.25 0.25 0.25 0.25 0.25 0.25 0.25 0.25 0.25 0.25 0.25 0.25 0.25 0.25 0.25 0.25 0.25 0.25 0.25 0.25 0.25 0.25 0.25 0.25 0.25 0.25 0.25 0.25 0.25 0.25 0.25 0.25 0.25 0.25 0.25 0.25 0.25 0.25 0.25 0.25 0.25 0.25 0.25 0.25 0.25 0.25 0.25 0.25 0.25 0.25 0.25 0.25 0.25 0.25 0.25 0.25 0.25 0.25 0.25 0.25 0.25 0.25 0.25 0.25 0.25 0.25 0.25 0.25 0.25 0.25 0.25 0.25 0.25 0.25 0.25 0.25 0.25 0.25 0.25 0.25 0.25 0.25 0.25 0.25 0.25 0.25 0.25 0.25 0.25 0.25 0.25 0.25 0.25 0.25 0.25 0.25 0.25 0.25 0.25 0.25 0.25 0.25 0.25 0.25 0.25 0.25 0.25 0.25 0.25 0.25 0.25 0.25 0.25 0.25 0.25 0.25 0.25 0.25 0.25 0.25 0.25 0.25 0.25 0.25 0.25 0.25 0.25 0.25 0.25 0.25 0.25 0.25 0.25 0.25 0.25 0.25 0.25 0.25 0.25 0.25 0.25 0.25 0.25 0.25 0.25 0.25 0.25 0.25 0.25 0.25 0.25 0.25 0.25 0.25 0.25 0.25 0.25 0.25 0.25 0.25 0.25 0.25 0.25 0.25 0.25 0.25 0.25 0.25 0.25 0.25 0.25 0.25 0.25 0.25 0.25 0.25 0.25 0.25 0.25 0.25 0.25 0.25 0.25 0.25 0.25 0.25 0.25 0.25 0.25 0.25 0.25 0.25 0.25 0.25 0.25 0.25 0.25 0.25 0.25 0.25 0.25 0.25 0.25 0.25 0.25 0.25 0.25 0.25 0.25 0.25 0.25 0.25 0.25 0.25 0.25 0.25 0.25 0.25 0.25 0.25 0.25 0.25 0.25 0.25 0.25 0.25 0.25 0.25 0.25 0.25 0.25 0.25 0.25 0.25 0.25 0.25 0.25 0.25 0.25 0.25 0.25 0.25 0.25 0.25 0.25 0.25 0.25 0.25 0.25 0.25 0.25 0.25 0.25 0.25 0.25 0.25 0.25 0.25 0.25 0.25 0.25 0.25 0.25 0.25 0.25 0.25 0.25 0.25 0.25 0.25 0.25 0.25 0.25 0.25 0.25 0.25 0.25 0.25 0.25 0.25 0.25 0.25 0.25 0.25 0.25 0.25 0.25 0.25 0.25 0.25 0.25 0.25 0.25 0.25 0.25 0.25 0.25 0.25 0.25 0.25 0.25 0.25 0.25 0.25 0.25 0.25 0.25 0.25 0.25 0.25 0.25 0.25 0.25 0.25 0.25 0.25 0.25 0.25 0.25 0.25 0.25 0.25 0.25 0.25 0.25 0.25 0.25 0.25 0.25 0.25 0.25 0.25 0.25 0.25 0.25 0.25 0.25 0.25 0.25 0.25 0.25 0.25 0.25 0.25 0.25 0.25 0.25 0.25 0.25 0.25 0.25 0.25 0.25 0.25 0.25 0.25 0.25 0.25 0.25 0.25 0.25 0.25 0.25 0.25 0.25 0.25 0.25 0.25 0.25 0.25 0.25 0.25 0.25 0.25 0.25 0.25 0.25 0.25 0.25 0.25 0.25 0.25 0.25 0.25 0.25 0.25 0.25 0.25 0.25 0.25 0.25 0.25 0.25 0.25 0.25 0.25 0.25 0.25 0.25 0.25 0.25 0.25 0.25 0.25 0.25 0.25 0.25 0.25 0.25 0.25 0.25 0.25 0.25 0.25 0.25 0.25 0.25 0.25 0.25 0.25 0.25 0.25 0.25 0.25 0.25 0.25 0.25 0.25 0.25 0.25 0.25 0.25 0.25 0.25 0.25 0.25 0.25 0.25 0.25 0.25 0.25 0.25 0.25 0.25 0.25 0.25 0.25 0.25 0.25 0.25 0.25 0.25 0.25 0.25 0.25 0.25 0.25 0.25 0.25 0.25 0.25 0.25 0.25 0.25 0.25 0.25 0.25 0.25 0.25 0.25 0.25 0.25 0.25 0.25 0.25 0.25 0.25 0.25 0.25 0.25 0.25 0.25 0.25 0.25 0.25 0.25 0.25 0.25 0.25 0.25 0.25 0.25 0.25 0.25 0.25 0.25 0.25 0.25 0.25 0.25 0.25 0.25 0.25 0.25 0.25 0.25 0.25 0.25 0.25 0.25 0.25 0.25 0.25 0.25 0.25 0.25 0.25 0.25 0.25 0.25 0.25 0.25 0.25 0.25 0.25 0.25 0.25 0.25 0.25 0.25 0.25 0.25 0.25 0.25 0.25 0.25 0.25 0.25 0.25 0.25 0.25 0.25 0.25 0.25 0.25 0.25 0.25 0.25 0.25 0.25 0.25 0.25 0.25 0.25 0.25 0.25 0.25 0.25 0.25 0.25 0.25 0.25 0.25 0.25 0.25 0.25 0.25 0.25 0.25 0.25 0.25 0.25 0.25 0.25 0.25 0.25 0.25 0.25 0.25 0.25 0.25 0.25 0.25 0.25 0.25 0.25 0.25 0.25 0.25 0.25 0.25 0.25 0.25 0.25 0.25 0.25 0.25 0.25 0.25 0.25 0.25 0.25 0.25 0.25 0.25 0.25 0.25 0.25 0.25 0.25 0.25 0.25 0.25 0.25 0.25 0.25 0.25 0.25 0.25 0.25 0.25 0.25 0.25 0.25 0.25 0.25 0.25 0.25 0.25 0.25 0.25 0.25 0.25 0.25 0.25 0.25 0.25 0.25 0.25 0.25 0.25 0.25 0.25 0.25 0.25 0.25 0.25 0.25 0.25 0.25 0.25 0.25 0.25 0.25 0.25 0.25 0.25 0.25 0.25 0.25 0.25 0.25 0.25 0.25 0.25 0.25 0.25 0.25 0.25 0.25 0.25 0.25 0.25 0.25 0.25 0.25 0.25 0.25 0.25 0.25 0.25 0.25 0.25 0.25 0.25 0.25 0.25 0.25 0.25 0.25 0.25 0.25 0.25 0.25 0.25 0.25 0.25 0.25 0.25 0.25 0.25 0.25 0.25 0.25 0.25 0.25 0.25 0.25 0.25 0.25 0.25 0.25 0.25 0.25 0.25 0.25 0.25 0.25 0.25 0.25 0.25 0.25 0.25 0.25 0.25 0.25 0.25 0.25 0.25 0.25 0.25 0.25 0.25 0.25 0.25 0.25 0.25 0.25 0.25 0.25 0.25 0.25 0.25 0.25 0.25 0.25 0.25 0.25 0.25 0.25 0.25 0.25 0.25 0.25 0.25 0.25 0.25 0.25 0.25 0.25 0.25 0.25 0.25 0.25 0.25 0.25 0.25 0.25 0.25 0.25 0.25 0.25 0.25 0.25 0.25 0.25 0.25 0.25 0.25 0.25 0.25 0.25 0.25 0.25 0.25 0.1212871287128713 0.349009900990099 0.5272277227722773 0.002475247524752475 0.2265625 0.5390625 0.2265625 0.0078125 0.5518867924528301 0.4386792452830188 0.004716981132075472 0.004716981132075472 0.2954545454545455 0.6590909090909091 0.02272727272727273 0.02272727272727273 0.25 0.25 0.25 0.25 0.25 0.25 0.25 0.25 0.25 0.25 0.25 0.25 0.25 0.25 0.25 0.25 0.25 0.25 0.25 0.25 0.25 0.25 0.25 0.25 0.25 0.25 0.25 0.25 0.25 0.25 0.25 0.25 0.25 0.25 0.25 0.25 0.25 0.25 0.25 0.25 0.25 0.25 0.25 0.25 0.25 0.25 0.25 0.25 0.1533613445378151 0.388655462184874 0.4558823529411765 0.002100840336134454 0.2389705882352941 0.3713235294117647 0.3860294117647059 0.003676470588235294 0.5673076923076923 0.375 0.05448717948717949 0.003205128205128205 0.2361111111111111 0.736111111111111 0.01388888888888889 0.01388888888888889 0.25 0.25 0.25 0.25 0.25 0.25 0.25 0.25 0.25 0.25 0.25 0.25 0.25 0.25 0.25 0.25 0.25 0.25 0.25 0.25 0.25 0.25 0.25 0.25 0.25 0.25 0.25 0.25 0.25 0.25 0.25 0.25 0.25 0.25 0.25 0.25 0.25 0.25 0.25 0.25 0.25 0.25 0.25 0.25 0.25 0.25 0.25 0.25 0.1713483146067416 0.4073033707865168 0.4185393258426966 0.002808988764044944 0.2616279069767442 0.2616279069767442 0.4709302325581395 0.005813953488372093 0.266304347826087 0.6576086956521739 0.07065217391304347 0.005434782608695652 0.4456521739130435 0.5326086956521739 0.0108695652173913 0.0108695652173913 0.25 0.25 0.25 0.25 0.25 0.25 0.25 0.25 0.25 0.25 0.25 0.25 0.25 0.25 0.25 0.25 0.25 0.25 0.25 0.25 0.25 0.25 0.25 0.25 0.25 0.25 0.25 0.25 0.25 0.25 0.25 0.25 0.25 0.25 0.25 0.25 0.25 0.25 0.25 0.25 0.25 0.25 0.25 0.25 0.25 0.25 0.25 0.25 0.02184466019417475 0.5266990291262136 0.4490291262135922 0.002427184466019417 0.02954545454545454 0.5568181818181818 0.4113636363636363 0.002272727272727273 0.0154320987654321 0.9166666666666666 0.06481481481481481 0.00308641975308642 0.008064516129032258 0.9758064516129032 0.008064516129032258 0.008064516129032258 0.25 0.25 0.25 0.25 0.25 0.25 0.25 0.25 0.25 0.25 0.25 0.25 0.25 0.25 0.25 0.25 0.25 0.25 0.25 0.25 0.25 0.25 0.25 0.25 0.25 0.25 0.25 0.25 0.25 0.25 0.25 0.25 0.25 0.25 0.25 0.25 0.25 0.25 0.25 0.25 0.25 0.25 0.25 0.25 0.25 0.25 0.25 0.25 0.25 0.25 0.25 0.25 0.25 0.25 0.25 0.25 0.25 0.25 0.25 0.25 0.25 0.25 0.25 0.25 0.25 0.25 0.25 0.25 0.25 0.25 0.25 0.25 0.25 0.25 0.25 0.25 0.25 0.25 0.25 0.25 0.25 0.25 0.25 0.25 0.25 0.25 0.25 0.25 0.25 0.25 0.25 0.25 0.25 0.25 0.25 0.25 0.25 0.25 0.25 0.25 0.25 0.25 0.25 0.25 0.25 0.25 0.25 0.25 0.25 0.25 0.25 0.25 0.25 0.25 0.25 0.25 0.25 0.25 0.25 0.25 0.25 0.25 0.25 0.25 0.25 0.25 0.25 0.25 0.25 0.25 0.25 0.25 0.25 0.25 0.25 0.25 0.25 0.25 0.25 0.25 0.25 0.25 0.25 0.25 0.25 0.25 0.25 0.25 0.25 0.25 0.25 0.25 0.25 0.25 0.25 0.25 0.25 0.25 0.25 0.25 0.25 0.25 0.25 0.25 0.25 0.25 0.25 0.25 0.25 0.25 0.25 0.25 0.25 0.25 0.25 0.25 0.25 0.25 0.25 0.25 0.25 0.25 0.25 0.25 0.25 0.25 0.25 0.25 0.25 0.25 0.25 0.25 0.25 0.25 0.25 0.25 0.25 0.25 0.25 0.25 0.25 0.25 0.25 0.25 0.25 0.25 0.25 0.25 0.25 0.25 0.25 0.25 0.25 0.25 0.25 0.25 0.25 0.25 0.25 0.25 0.25 0.25 0.25 0.25 0.25 0.25 0.25 0.25 0.25 0.25 0.25 0.25 0.25 0.25 0.25 0.25 0.25 0.25 0.25 0.25 0.25 0.25 0.25 0.25 0.25 0.25 0.25 0.25 0.25 0.25 0.25 0.25 0.25 0.25 0.25 0.25 0.25 0.25 0.25 0.25 0.25 0.25 0.25 0.25 0.25 0.25 0.25 0.25 0.25 0.25 0.25 0.25 0.25 0.25 0.25 0.25 0.25 0.25 0.25 0.25 0.25 0.25 0.25 0.25 0.25 0.25 0.25 0.25 0.25 0.25 0.25 0.25 0.25 0.25 0.25 0.25 0.25 0.25 0.25 0.25 0.25 0.25 0.25 0.25 0.1934523809523809 0.2886904761904762 0.5148809523809523 0.002976190476190476 0.2083333333333333 0.2083333333333333 0.575 0.008333333333333333 0.25 0.25 0.25 0.25 0.25 0.25 0.25 0.25 0.25 0.25 0.25 0.25 0.625 0.125 0.125 0.125 0.25 0.25 0.25 0.25 0.25 0.25 0.25 0.25 0.25 0.25 0.25 0.25 0.25 0.25 0.25 0.25 0.25 0.25 0.25 0.25 0.25 0.25 0.25 0.25 0.25 0.25 0.25 0.25 0.25 0.25 0.25 0.25 0.25 0.25 0.25 0.25 0.25 0.25 0.25 0.25 0.05 0.386 0.5620000000000001 0.002 0.07456140350877193 0.4956140350877193 0.4254385964912281 0.004385964912280702 0.1136363636363636 0.6590909090909091 0.2045454545454546 0.02272727272727273 0.25 0.25 0.25 0.25 0.25 0.25 0.25 0.25 0.25 0.25 0.25 0.25 0.625 0.125 0.125 0.125 0.25 0.25 0.25 0.25 0.25 0.25 0.25 0.25 0.25 0.25 0.25 0.25 0.25 0.25 0.25 0.25 0.25 0.25 0.25 0.25 0.25 0.25 0.25 0.25 0.25 0.25 0.25 0.25 0.25 0.25 0.25 0.25 0.25 0.25 0.25 0.25 0.002747252747252747 0.4862637362637363 0.4423076923076923 0.06868131868131869 0.008928571428571428 0.5089285714285714 0.4732142857142857 0.008928571428571428 0.0625 0.5625 0.3125 0.0625 0.25 0.25 0.25 0.25 0.25 0.25 0.25 0.25 0.25 0.25 0.25 0.25 0.25 0.25 0.25 0.25 0.25 0.25 0.25 0.25 0.25 0.25 0.25 0.25 0.25 0.25 0.25 0.25 0.25 0.25 0.25 0.25 0.25 0.25 0.25 0.25 0.25 0.25 0.25 0.25 0.25 0.25 0.25 0.25 0.25 0.25 0.25 0.25 0.25 0.25 0.25 0.25 0.09375 0.4921875 0.0234375 0.390625 0.005208333333333333 0.3177083333333333 0.2760416666666666 0.4010416666666666 0.05 0.05 0.45 0.45 0.25 0.25 0.25 0.25 0.25 0.25 0.25 0.25 0.25 0.25 0.25 0.25 0.25 0.25 0.25 0.25 0.25 0.25 0.25 0.25 0.25 0.25 0.25 0.25 0.25 0.25 0.25 0.25 0.25 0.25 0.25 0.25 0.25 0.25 0.25 0.25 0.25 0.25 0.25 0.25 0.25 0.25 0.25 0.25 0.25 0.25 0.25 0.25 0.25 0.25 0.25 0.25 0.01923076923076923 0.9423076923076924 0.01923076923076923 0.01923076923076923 0.025 0.925 0.025 0.025 0.025 0.925 0.025 0.025 0.25 0.25 0.25 0.25 0.25 0.25 0.25 0.25 0.25 0.25 0.25 0.25 0.25 0.25 0.25 0.25 0.25 0.25 0.25 0.25 0.25 0.25 0.25 0.25 0.25 0.25 0.25 0.25 0.25 0.25 0.25 0.25 0.25 0.25 0.25 0.25 0.25 0.25 0.25 0.25 0.25 0.25 0.25 0.25 0.25 0.25 0.25 0.25 0.25 0.25 0.25 0.25 0.015625 0.953125 0.015625 0.015625 0.015625 0.953125 0.015625 0.015625 0.03571428571428571 0.8928571428571428 0.03571428571428571 0.03571428571428571 0.25 0.25 0.25 0.25 0.25 0.25 0.25 0.25 0.25 0.25 0.25 0.25 0.25 0.25 0.25 0.25 0.25 0.25 0.25 0.25 0.25 0.25 0.25 0.25 0.25 0.25 0.25 0.25 0.25 0.25 0.25 0.25 0.25 0.25 0.25 0.25 0.25 0.25 0.25 0.25 0.25 0.25 0.25 0.25 0.25 0.25 0.25 0.25 0.25 0.25 0.25 0.25 0.015625 0.953125 0.015625 0.015625 0.02272727272727273 0.9318181818181819 0.02272727272727273 0.02272727272727273 0.04166666666666666 0.875 0.04166666666666666 0.04166666666666666 0.25 0.25 0.25 0.25 0.25 0.25 0.25 0.25 0.25 0.25 0.25 0.25 0.25 0.25 0.25 0.25 0.25 0.25 0.25 0.25 0.25 0.25 0.25 0.25 0.25 0.25 0.25 0.25 0.25 0.25 0.25 0.25 0.25 0.25 0.25 0.25 0.25 0.25 0.25 0.25 0.25 0.25 0.25 0.25 0.25 0.25 0.25 0.25 0.25 0.25 0.25 0.25 0.007575757575757576 0.6742424242424243 0.3106060606060606 0.007575757575757576 0.015625 0.640625 0.328125 0.015625 0.03571428571428571 0.4642857142857142 0.4642857142857142 0.03571428571428571 0.25 0.25 0.25 0.25 0.125 0.625 0.125 0.125 0.25 0.25 0.25 0.25 0.25 0.25 0.25 0.25 0.25 0.25 0.25 0.25 0.25 0.25 0.25 0.25 0.25 0.25 0.25 0.25 0.25 0.25 0.25 0.25 0.25 0.25 0.25 0.25 0.25 0.25 0.25 0.25 0.25 0.25 0.25 0.25 0.25 0.25 0.25 0.25 0.25 0.25 0.25 0.25 0.25 0.25 0.25 0.25 0.25 0.25 0.25 0.25 0.25 0.25 0.25 0.25 0.25 0.25 0.25 0.25 0.25 0.25 0.25 0.25 0.25 0.25 0.25 0.25 0.25 0.25 0.25 0.25 0.25 0.25 0.25 0.25 0.25 0.25 0.25 0.25 0.25 0.25 0.25 0.25 0.25 0.25 0.25 0.25 0.25 0.25 0.25 0.25 0.25 0.25 0.25 0.25 0.25 0.25 0.25 0.25 0.25 0.25 0.25 0.25 0.25 0.25 0.25 0.25 0.25 0.25 0.25 0.25 0.25 0.25 0.25 0.25 0.25 0.25 0.25 0.25 0.25 0.25 0.25 0.25 0.25 0.25 0.25 0.25 0.25 0.25 0.25 0.25 0.25 0.25 0.25 0.25 0.25 0.25 0.25 0.25 0.25 0.25 0.25 0.25 0.25 0.25 0.25 0.25 0.25 0.25 0.25 0.25 0.25 0.25 0.25 0.25 0.25 0.25 0.25 0.25 0.25 0.25 0.25 0.25 0.25 0.25 0.25 0.25 0.25 0.25 0.25 0.25 0.25 0.25 0.25 0.25 0.25 0.25 0.25 0.25 0.25 0.25 0.25 0.25 0.25 0.25 0.25 0.25 0.25 0.25 0.25 0.25 0.25 0.25 0.25 0.25 0.25 0.25 0.25 0.25 0.25 0.25 0.25 0.25 0.25 0.25 0.25 0.25 0.25 0.25 0.25 0.25 0.25 0.25 0.25 0.25 0.25 0.25 0.25 0.25 0.25 0.25 0.25 0.25 0.25 0.25 0.25 0.25 0.25 0.25 0.25 0.25 0.25 0.25 0.25 0.25 0.25 0.25 0.25 0.25 0.25 0.25 0.25 0.25 0.25 0.25 0.25 0.25 0.25 0.25 0.25 0.25 0.25 0.25 0.25 0.25 0.25 0.25 0.25 0.25 0.25 0.25 0.25 0.25 0.25 0.25 0.25 0.25 0.25 0.25 0.25 0.25 0.25 0.25 0.25 0.25 0.25 0.25 0.25 0.25 0.25 0.25 0.25 0.25 0.25 0.25 0.25 0.25 0.25 0.25 0.25 0.25 0.25 0.25 0.25 0.25 0.25 0.25 0.25 0.25 0.25 0.25 0.25 0.25 0.25 0.25 0.25 0.25 0.25 0.25 0.25 0.25 0.25 0.25 0.25 0.25 0.25 0.25 0.25 0.25 0.25 0.25 0.25 0.25 0.25 0.25 0.25 0.25 0.25 0.25 0.25 0.25 0.25 0.25 0.25 0.25 0.25 0.25 0.25 0.25 0.25 0.25 0.25 0.25 0.25 0.25 0.25 0.25 0.25 0.25 0.25 0.25 0.25 0.25 0.25 0.25 0.25 0.25 0.25 0.25 0.25 0.25 0.25 0.25 0.25 0.25 0.25 0.25 0.25 0.25 0.25 0.25 0.25 0.25 0.25 0.25 0.25 0.25 0.25 0.25 0.25 0.25 0.25 0.25 0.25 0.25 0.25 0.25 0.25 0.25 0.25 0.25 0.25 0.25 0.25 0.25 0.25 0.25 0.25 0.25 0.25 0.25 0.25 0.25 0.25 0.25 0.25 0.25 0.25 0.25 0.25 0.25 0.25 0.25 0.25 0.25 0.25 0.25 0.25 0.25 0.25 0.25 0.25 0.25 0.25 0.25 0.25 0.25 0.25 0.25 0.25 0.25 0.25 0.25 0.25 0.25 0.25 0.25 0.25 0.25 0.25 0.25 0.25 0.25 0.25 0.25 0.25 0.25 0.25 0.25 0.25 0.25 0.25 0.25 0.25 0.25 0.25 0.25 0.25 0.25 0.25 0.25 0.25 0.25 0.25 0.25 0.25 0.25 0.25 0.25 0.25 0.25 0.25 0.25 0.25 0.25 0.25 0.25 0.25 0.25 0.25 0.25 0.25 0.25 0.25 0.25 0.25 0.25 0.25 0.25 0.25 0.25 0.25 0.25 0.25 0.25 0.25 0.25 0.25 0.25 0.25 0.25 0.25 0.25 0.25 0.25 0.25 0.25 0.25 0.25 0.25 0.25 0.25 0.25 0.25 0.25 0.25 0.25 0.25 0.25 0.25 0.25 0.25 0.25 0.25 0.25 0.25 0.25 0.25 0.25 0.25 0.25 0.25 0.25 0.25 0.25 0.25 0.25 0.25 0.25 0.25 0.25 0.25 0.25 0.25 0.25 0.25 0.25 0.25 0.25 0.25 0.25 0.25 0.25 0.25 0.25 0.25 0.25 0.25 0.25 0.25 0.25 0.25 0.25 0.25 0.25 0.25 0.25 0.25 0.25 0.25 0.25 0.25 0.25 0.25 0.25 0.25 0.25 0.25 0.25 0.25 0.25 0.25 0.25 0.25 0.25 0.25 0.25 0.25 0.25 0.25 0.25 0.25 0.25 0.25 0.25 0.25 0.25 0.25 0.25 0.25 0.25 0.25 0.25 0.25 0.25 0.25 0.25 0.25 0.25 0.25 0.25 0.25 0.25 0.25 0.25 0.25 0.25 0.25 0.25 0.25 0.25 0.25 0.25 0.25 0.25 0.25 0.25 0.25 0.25 0.25 0.25 0.25 0.25 0.25 0.25 0.25 0.25 0.25 0.25 0.25 0.25 0.25 0.25 0.25 0.25 0.25 0.25 0.25 0.25 0.25 0.25 0.25 0.25 0.25 0.25 0.25 0.25 0.25 0.25 0.25 0.25 0.25 0.25 0.25 0.25 0.25 0.25 0.25 0.25 0.25 0.25 0.25 0.25 0.25 0.25 0.25 0.25 0.25 0.25 0.25 0.25 0.25 0.25 0.25 0.25 0.25 0.25 0.25 0.25 0.25 0.25 0.25 0.25 0.25 0.25 0.25 0.25 0.25 0.25 0.25 0.25 0.25 0.25 0.25 0.25 0.25 0.25 0.25 0.25 0.25 0.25 0.25 0.25 0.25 0.25 0.25 0.25 0.25 0.25 0.25 0.25 0.25 0.25 0.25 0.25 0.25 0.25 0.25 0.25 0.25 0.25 0.25 0.25 0.25 0.25 0.25 0.25 0.25 0.25 0.25 0.25 0.25 0.25 0.25 0.25 0.25 0.25 0.25 0.25 0.25 0.25 0.25 0.25 0.25 0.25 0.25 0.25 0.25 0.25 0.25 0.25 0.25 0.25 0.25 0.25 0.25 0.25 0.25 0.25 0.25 0.25 0.25 0.25 0.25 0.25 0.25 0.25 0.25 0.25 0.25 0.25 0.25 0.25 0.25 0.25 0.25 0.25 0.25 0.25 0.25 0.25 0.25 0.25 0.25 0.25 0.25 0.25 0.25 0.25 0.25 0.25 0.25 0.25 0.25 0.25 0.25 0.25 0.25 0.25 0.25 0.25 0.25 0.25 0.25 0.25 0.25 0.25 0.25 0.25 0.25 0.25 0.25 0.25 0.25 0.25 0.25 0.25 0.25 0.25 0.25 0.25 0.25 0.25 0.25 0.25 0.25 0.25 0.25 0.25 0.25 0.25 0.25 0.25 0.25 0.25 0.25 0.25 0.25 0.25 0.25 0.25 0.25 0.25 0.25 0.25 0.25 0.25 0.25 0.25 0.25 0.25 0.25 0.25 0.25 0.25 0.25 0.25 0.25 0.25 0.25 0.25 0.25 0.25 0.25 0.25 0.25 0.25 0.25 0.25 0.25 0.25 0.25 0.25 0.25 0.25 0.25 0.25 0.25 0.25 0.25 0.25 0.25 0.25 0.25 0.25 0.25 0.25 0.25 0.25 0.25 0.25 0.25 0.25 0.25 0.25 0.25 0.25 0.25 0.25 0.25 0.25 0.25 0.25 0.25 0.25 0.25 0.25 0.25 0.25 0.25 0.25 0.25 0.25 0.25 0.25 0.25 0.25 0.25 0.25 0.25 0.25 0.25 0.25 0.25 0.25 0.25 0.25 0.25 0.25 0.25 0.25 0.25 0.25 0.25 0.25 0.25 0.25 0.25 0.25 0.25 0.25 0.25 0.25 0.25 0.25 0.25 0.25 0.25 0.25 0.25 0.25 0.25 0.25 0.25 0.25 0.25 0.25 0.25 0.25 0.25 0.25 0.25 0.25 0.25 0.25 0.25 0.25 0.25 0.25 0.25 0.25 0.25 0.25 0.25 0.25 0.25 0.25 0.25 0.25 0.25 0.25 0.25 0.25 0.25 0.25 0.25 0.25 0.25 0.25 0.25 0.25 0.25 0.25 0.25 0.25 0.25 0.25 0.25 0.25 0.25 0.25 0.25 0.25 0.25 0.25 0.25 0.25 0.25 0.25 0.25 0.25 0.25 0.25 0.25 0.25 0.25 0.25 0.25 0.25 0.25 0.25 0.25 0.25 0.25 0.25 0.25 0.25 0.25 0.25 0.25 0.25 0.25 0.25 0.25 0.25 0.25 0.25 0.25 0.25 0.25 0.25 0.25 0.25 0.25 0.25 0.25 0.25 0.25 0.25 0.25 0.25 0.25 0.25 0.25 0.25 0.25 0.25 0.975 0.008333333333333333 0.008333333333333333 0.008333333333333333 0.9423076923076924 0.01923076923076923 0.01923076923076923 0.01923076923076923 0.9765625 0.0078125 0.0078125 0.0078125 0.25 0.25 0.25 0.25 0.25 0.25 0.25 0.25 0.25 0.25 0.25 0.25 0.25 0.25 0.25 0.25 0.25 0.25 0.25 0.25 0.25 0.25 0.25 0.25 0.25 0.25 0.25 0.25 0.25 0.25 0.25 0.25 0.25 0.25 0.25 0.25 0.25 0.25 0.25 0.25 0.25 0.25 0.25 0.25 0.25 0.25 0.25 0.25 0.25 0.25 0.25 0.25 0.8563829787234042 0.1329787234042553 0.005319148936170213 0.005319148936170213 0.9765625 0.0078125 0.0078125 0.0078125 0.9758064516129032 0.008064516129032258 0.008064516129032258 0.008064516129032258 0.25 0.25 0.25 0.25 0.25 0.25 0.25 0.25 0.25 0.25 0.25 0.25 0.25 0.25 0.25 0.25 0.25 0.25 0.25 0.25 0.25 0.25 0.25 0.25 0.25 0.25 0.25 0.25 0.25 0.25 0.25 0.25 0.25 0.25 0.25 0.25 0.25 0.25 0.25 0.25 0.25 0.25 0.25 0.25 0.25 0.25 0.25 0.25 0.25 0.25 0.25 0.25 0.2016129032258064 0.782258064516129 0.008064516129032258 0.008064516129032258 0.9785714285714285 0.007142857142857143 0.007142857142857143 0.007142857142857143 0.9722222222222222 0.009259259259259259 0.009259259259259259 0.009259259259259259 0.25 0.25 0.25 0.25 0.25 0.25 0.25 0.25 0.25 0.25 0.25 0.25 0.25 0.25 0.25 0.25 0.25 0.25 0.25 0.25 0.25 0.25 0.25 0.25 0.25 0.25 0.25 0.25 0.25 0.25 0.25 0.25 0.25 0.25 0.25 0.25 0.25 0.25 0.25 0.25 0.25 0.25 0.25 0.25 0.25 0.25 0.25 0.25 0.25 0.25 0.25 0.25 0.09539473684210525 0.8980263157894737 0.003289473684210526 0.003289473684210526 0.8716216216216217 0.1148648648648649 0.006756756756756757 0.006756756756756757 0.9732142857142857 0.008928571428571428 0.008928571428571428 0.008928571428571428 0.25 0.25 0.25 0.25 0.25 0.25 0.25 0.25 0.25 0.25 0.25 0.25 0.25 0.25 0.25 0.25 0.25 0.25 0.25 0.25 0.25 0.25 0.25 0.25 0.25 0.25 0.25 0.25 0.25 0.25 0.25 0.25 0.25 0.25 0.25 0.25 0.25 0.25 0.25 0.25 0.25 0.25 0.25 0.25 0.25 0.25 0.25 0.25 0.25 0.25 0.25 0.25 0.2434210526315789 0.4802631578947368 0.2697368421052632 0.006578947368421052 0.8804347826086957 0.0108695652173913 0.09782608695652173 0.0108695652173913 0.25 0.25 0.25 0.25 0.25 0.25 0.25 0.25 0.25 0.25 0.25 0.25 0.25 0.25 0.25 0.25 0.25 0.25 0.25 0.25 0.625 0.125 0.125 0.125 0.25 0.25 0.25 0.25 0.25 0.25 0.25 0.25 0.25 0.25 0.25 0.25 0.25 0.25 0.25 0.25 0.25 0.25 0.25 0.25 0.25 0.25 0.25 0.25 0.25 0.25 0.25 0.25 0.25 0.25 0.25 0.25 0.298780487804878 0.006097560975609756 0.6890243902439025 0.006097560975609756 0.6118421052631579 0.006578947368421052 0.375 0.006578947368421052 0.25 0.25 0.25 0.25 0.25 0.25 0.25 0.25 0.25 0.25 0.25 0.25 0.25 0.25 0.25 0.25 0.25 0.25 0.25 0.25 0.25 0.25 0.25 0.25 0.25 0.25 0.25 0.25 0.25 0.25 0.25 0.25 0.25 0.25 0.25 0.25 0.25 0.25 0.25 0.25 0.25 0.25 0.25 0.25 0.25 0.25 0.25 0.25 0.25 0.25 0.25 0.25 0.25 0.25 0.25 0.25 0.1388888888888889 0.3888888888888888 0.3055555555555555 0.1666666666666667 0.1785714285714285 0.6071428571428571 0.1785714285714285 0.03571428571428571 0.25 0.25 0.25 0.25 0.25 0.25 0.25 0.25 0.25 0.25 0.25 0.25 0.25 0.25 0.25 0.25 0.25 0.25 0.25 0.25 0.25 0.25 0.25 0.25 0.25 0.25 0.25 0.25 0.25 0.25 0.25 0.25 0.25 0.25 0.25 0.25 0.25 0.25 0.25 0.25 0.25 0.25 0.25 0.25 0.25 0.25 0.25 0.25 0.25 0.25 0.25 0.25 0.25 0.25 0.25 0.25 0.003289473684210526 0.4901315789473684 0.5032894736842105 0.003289473684210526 0.009259259259259259 0.8240740740740741 0.1574074074074074 0.009259259259259259 0.25 0.25 0.25 0.25 0.25 0.25 0.25 0.25 0.25 0.25 0.25 0.25 0.25 0.25 0.25 0.25 0.25 0.25 0.25 0.25 0.25 0.25 0.25 0.25 0.25 0.25 0.25 0.25 0.25 0.25 0.25 0.25 0.25 0.25 0.25 0.25 0.25 0.25 0.25 0.25 0.25 0.25 0.25 0.25 0.25 0.25 0.25 0.25 0.25 0.25 0.25 0.25 0.25 0.25 0.25 0.25 0.25 0.25 0.25 0.25 0.25 0.25 0.25 0.25 0.25 0.25 0.25 0.25 0.25 0.25 0.25 0.25 0.25 0.25 0.25 0.25 0.25 0.25 0.25 0.25 0.25 0.25 0.25 0.25 0.25 0.25 0.25 0.25 0.25 0.25 0.25 0.25 0.25 0.25 0.25 0.25 0.25 0.25 0.25 0.25 0.25 0.25 0.25 0.25 0.25 0.25 0.25 0.25 0.25 0.25 0.25 0.25 0.25 0.25 0.25 0.25 0.25 0.25 0.25 0.25 0.25 0.25 0.25 0.25 0.25 0.25 0.25 0.25 0.25 0.25 0.25 0.25 0.25 0.25 0.25 0.25 0.25 0.25 0.25 0.25 0.25 0.25 0.25 0.25 0.25 0.25 0.25 0.25 0.25 0.25 0.25 0.25 0.25 0.25 0.25 0.25 0.25 0.25 0.25 0.25 0.25 0.25 0.25 0.25 0.25 0.25 0.25 0.25 0.25 0.25 0.25 0.25 0.25 0.25 0.25 0.25 0.25 0.25 0.25 0.25 0.25 0.25 0.25 0.25 0.25 0.25 0.25 0.25 0.25 0.25 0.25 0.25 0.25 0.25 0.25 0.25 0.25 0.25 0.25 0.25 0.25 0.25 0.25 0.25 0.25 0.25 0.25 0.25 0.25 0.25 0.25 0.25 0.25 0.25 0.25 0.25 0.25 0.25 0.25 0.25 0.25 0.25 0.25 0.25 0.25 0.25 0.25 0.25 0.25 0.25 0.25 0.25 0.25 0.25 0.25 0.25 0.25 0.25 0.25 0.25 0.25 0.25 0.25 0.25 0.25 0.25 0.25 0.25 0.25 0.25 0.25 0.25 0.25 0.25 0.25 0.25 0.25 0.25 0.25 0.25 0.25 0.25 0.25 0.25 0.25 0.25 0.25 0.25 0.25 0.25 0.25 0.25 0.25 0.25 0.25 0.25 0.25 0.25 0.25 0.25 0.25 0.25 0.25 0.25 0.25 0.25 0.25 0.25 0.25 0.25 0.25 0.25 0.25 0.25 0.25 0.25 0.25 0.25 0.25 0.25 0.25 0.25 0.25 0.25 0.25 0.25 0.25 0.25 0.25 0.25 0.25 0.25 0.008620689655172414 0.9741379310344828 0.008620689655172414 0.008620689655172414 0.25 0.25 0.25 0.25 0.25 0.25 0.25 0.25 0.25 0.25 0.25 0.25 0.25 0.25 0.25 0.25 0.25 0.25 0.25 0.25 0.25 0.25 0.25 0.25 0.25 0.25 0.25 0.25 0.25 0.25 0.25 0.25 0.25 0.25 0.25 0.25 0.25 0.25 0.25 0.25 0.25 0.25 0.25 0.25 0.25 0.25 0.25 0.25 0.25 0.25 0.25 0.25 0.25 0.25 0.25 0.25 0.25 0.25 0.25 0.25 0.01041666666666667 0.96875 0.01041666666666667 0.01041666666666667 0.125 0.625 0.125 0.125 0.25 0.25 0.25 0.25 0.25 0.25 0.25 0.25 0.25 0.25 0.25 0.25 0.25 0.25 0.25 0.25 0.25 0.25 0.25 0.25 0.25 0.25 0.25 0.25 0.25 0.25 0.25 0.25 0.25 0.25 0.25 0.25 0.25 0.25 0.25 0.25 0.25 0.25 0.25 0.25 0.25 0.25 0.25 0.25 0.25 0.25 0.25 0.25 0.25 0.25 0.25 0.25 0.25 0.25 0.25 0.25 0.01 0.97 0.01 0.01 0.25 0.25 0.25 0.25 0.25 0.25 0.25 0.25 0.25 0.25 0.25 0.25 0.25 0.25 0.25 0.25 0.25 0.25 0.25 0.25 0.25 0.25 0.25 0.25 0.25 0.25 0.25 0.25 0.25 0.25 0.25 0.25 0.25 0.25 0.25 0.25 0.25 0.25 0.25 0.25 0.25 0.25 0.25 0.25 0.25 0.25 0.25 0.25 0.25 0.25 0.25 0.25 0.25 0.25 0.25 0.25 0.25 0.25 0.25 0.25 0.009259259259259259 0.2314814814814815 0.75 0.009259259259259259 0.02272727272727273 0.02272727272727273 0.9318181818181819 0.02272727272727273 0.25 0.25 0.25 0.25 0.25 0.25 0.25 0.25 0.25 0.25 0.25 0.25 0.25 0.25 0.25 0.25 0.25 0.25 0.25 0.25 0.25 0.25 0.25 0.25 0.25 0.25 0.25 0.25 0.25 0.25 0.25 0.25 0.25 0.25 0.25 0.25 0.25 0.25 0.25 0.25 0.25 0.25 0.25 0.25 0.25 0.25 0.25 0.25 0.25 0.25 0.25 0.25 0.25 0.25 0.25 0.25 0.25 0.25 0.25 0.25 0.25 0.25 0.25 0.25 0.25 0.25 0.25 0.25 0.25 0.25 0.25 0.25 0.25 0.25 0.25 0.25 0.25 0.25 0.25 0.25 0.25 0.25 0.25 0.25 0.25 0.25 0.25 0.25 0.25 0.25 0.25 0.25 0.25 0.25 0.25 0.25 0.25 0.25 0.25 0.25 0.25 0.25 0.25 0.25 0.25 0.25 0.25 0.25 0.25 0.25 0.25 0.25 0.25 0.25 0.25 0.25 0.25 0.25 0.25 0.25 0.25 0.25 0.25 0.25 0.25 0.25 0.25 0.25 0.25 0.25 0.25 0.25 0.25 0.25 0.25 0.25 0.25 0.25 0.25 0.25 0.25 0.25 0.25 0.25 0.25 0.25 0.25 0.25 0.25 0.25 0.25 0.25 0.25 0.25 0.25 0.25 0.25 0.25 0.25 0.25 0.25 0.25 0.25 0.25 0.25 0.25 0.25 0.25 0.25 0.25 0.25 0.25 0.25 0.25 0.25 0.25 0.25 0.25 0.25 0.25 0.25 0.25 0.25 0.25 0.25 0.25 0.25 0.25 0.25 0.25 0.25 0.25 0.25 0.25 0.25 0.25 0.25 0.25 0.25 0.25 0.25 0.25 0.25 0.25 0.25 0.25 0.25 0.25 0.25 0.25 0.25 0.25 0.25 0.25 0.25 0.25 0.25 0.25 0.25 0.25 0.25 0.25 0.25 0.25 0.25 0.25 0.25 0.25 0.25 0.25 0.25 0.25 0.25 0.25 0.25 0.25 0.25 0.25 0.25 0.25 0.25 0.25 0.25 0.25 0.25 0.25 0.25 0.25 0.25 0.25 0.25 0.25 0.25 0.25 0.25 0.25 0.25 0.25 0.25 0.25 0.25 0.25 0.25 0.25 0.25 0.25 0.25 0.25 0.25 0.25 0.25 0.25 0.25 0.25 0.25 0.25 0.25 0.25 0.25 0.25 0.25 0.25 0.25 0.25 0.25 0.25 0.25 0.25 0.25 0.25 0.25 0.25 0.25 0.25 0.25 0.25 0.25 0.25 0.25 0.25 0.25 0.25 0.25 0.25 0.25 0.25 0.25 0.25 0.25 0.25 0.25 0.25 0.01388888888888889 0.9583333333333333 0.01388888888888889 0.01388888888888889 0.03571428571428571 0.8928571428571428 0.03571428571428571 0.03571428571428571 0.125 0.625 0.125 0.125 0.25 0.25 0.25 0.25 0.25 0.25 0.25 0.25 0.25 0.25 0.25 0.25 0.25 0.25 0.25 0.25 0.25 0.25 0.25 0.25 0.25 0.25 0.25 0.25 0.25 0.25 0.25 0.25 0.25 0.25 0.25 0.25 0.25 0.25 0.25 0.25 0.25 0.25 0.25 0.25 0.25 0.25 0.25 0.25 0.25 0.25 0.25 0.25 0.25 0.25 0.25 0.25 0.9625 0.0125 0.0125 0.0125 0.875 0.04166666666666666 0.04166666666666666 0.04166666666666666 0.25 0.25 0.25 0.25 0.25 0.25 0.25 0.25 0.25 0.25 0.25 0.25 0.25 0.25 0.25 0.25 0.25 0.25 0.25 0.25 0.25 0.25 0.25 0.25 0.25 0.25 0.25 0.25 0.25 0.25 0.25 0.25 0.25 0.25 0.25 0.25 0.25 0.25 0.25 0.25 0.25 0.25 0.25 0.25 0.25 0.25 0.25 0.25 0.25 0.25 0.25 0.25 0.25 0.25 0.25 0.25 0.9423076923076924 0.01923076923076923 0.01923076923076923 0.01923076923076923 0.9583333333333333 0.01388888888888889 0.01388888888888889 0.01388888888888889 0.625 0.125 0.125 0.125 0.25 0.25 0.25 0.25 0.25 0.25 0.25 0.25 0.25 0.25 0.25 0.25 0.25 0.25 0.25 0.25 0.25 0.25 0.25 0.25 0.25 0.25 0.25 0.25 0.25 0.25 0.25 0.25 0.25 0.25 0.25 0.25 0.25 0.25 0.25 0.25 0.25 0.25 0.25 0.25 0.25 0.25 0.25 0.25 0.25 0.25 0.25 0.25 0.25 0.25 0.25 0.25 0.9166666666666666 0.02777777777777778 0.02777777777777778 0.02777777777777778 0.953125 0.015625 0.015625 0.015625 0.25 0.25 0.25 0.25 0.25 0.25 0.25 0.25 0.25 0.25 0.25 0.25 0.25 0.25 0.25 0.25 0.25 0.25 0.25 0.25 0.25 0.25 0.25 0.25 0.25 0.25 0.25 0.25 0.25 0.25 0.25 0.25 0.25 0.25 0.25 0.25 0.25 0.25 0.25 0.25 0.25 0.25 0.25 0.25 0.25 0.25 0.25 0.25 0.25 0.25 0.25 0.25 0.25 0.25 0.25 0.25 0.0625 0.0625 0.8125 0.0625 0.0125 0.0125 0.9625 0.0125 0.01 0.01 0.97 0.01 0.0625 0.0625 0.8125 0.0625 0.25 0.25 0.25 0.25 0.25 0.25 0.25 0.25 0.25 0.25 0.25 0.25 0.25 0.25 0.25 0.25 0.25 0.25 0.25 0.25 0.25 0.25 0.25 0.25 0.25 0.25 0.25 0.25 0.125 0.125 0.625 0.125 0.25 0.25 0.25 0.25 0.25 0.25 0.25 0.25 0.25 0.25 0.25 0.25 0.125 0.125 0.625 0.125 0.25 0.25 0.25 0.25 0.02272727272727273 0.02272727272727273 0.9318181818181819 0.02272727272727273 0.003731343283582089 0.003731343283582089 0.9888059701492538 0.003731343283582089 0.25 0.25 0.25 0.25 0.25 0.25 0.25 0.25 0.25 0.25 0.25 0.25 0.25 0.25 0.25 0.25 0.25 0.25 0.25 0.25 0.25 0.25 0.25 0.25 0.25 0.25 0.25 0.25 0.25 0.25 0.25 0.25 0.25 0.25 0.25 0.25 0.25 0.25 0.25 0.25 0.25 0.25 0.25 0.25 0.25 0.25 0.25 0.25 0.25 0.25 0.25 0.25 0.125 0.125 0.625 0.125 0.01785714285714286 0.01785714285714286 0.9464285714285714 0.01785714285714286 0.006097560975609756 0.006097560975609756 0.9817073170731707 0.006097560975609756 0.25 0.25 0.25 0.25 0.25 0.25 0.25 0.25 0.25 0.25 0.25 0.25 0.25 0.25 0.25 0.25 0.25 0.25 0.25 0.25 0.25 0.25 0.25 0.25 0.25 0.25 0.25 0.25 0.25 0.25 0.25 0.25 0.25 0.25 0.25 0.25 0.25 0.25 0.25 0.25 0.25 0.25 0.25 0.25 0.25 0.25 0.25 0.25 0.25 0.25 0.25 0.25 0.08333333333333333 0.4166666666666666 0.4166666666666666 0.08333333333333333 0.0108695652173913 0.6195652173913043 0.358695652173913 0.0108695652173913 0.004807692307692308 0.5817307692307693 0.4086538461538462 0.004807692307692308 0.25 0.25 0.25 0.25 0.25 0.25 0.25 0.25 0.25 0.25 0.25 0.25 0.25 0.25 0.25 0.25 0.25 0.25 0.25 0.25 0.25 0.25 0.25 0.25 0.25 0.25 0.25 0.25 0.25 0.25 0.25 0.25 0.25 0.25 0.25 0.25 0.25 0.25 0.25 0.25 0.25 0.25 0.25 0.25 0.25 0.25 0.25 0.25 0.25 0.25 0.25 0.25 0.25 0.25 0.25 0.25 0.25 0.25 0.25 0.25 0.25 0.25 0.25 0.25 0.25 0.25 0.25 0.25 0.25 0.25 0.25 0.25 0.25 0.25 0.25 0.25 0.25 0.25 0.25 0.25 0.25 0.25 0.25 0.25 0.25 0.25 0.25 0.25 0.25 0.25 0.25 0.25 0.25 0.25 0.25 0.25 0.25 0.25 0.25 0.25 0.25 0.25 0.25 0.25 0.25 0.25 0.25 0.25 0.25 0.25 0.25 0.25 0.25 0.25 0.25 0.25 0.25 0.25 0.25 0.25 0.25 0.25 0.25 0.25 0.25 0.25 0.25 0.25 0.25 0.25 0.25 0.25 0.25 0.25 0.25 0.25 0.25 0.25 0.25 0.25 0.25 0.25 0.25 0.25 0.25 0.25 0.25 0.25 0.25 0.25 0.25 0.25 0.25 0.25 0.25 0.25 0.25 0.25 0.25 0.25 0.25 0.25 0.25 0.25 0.25 0.25 0.25 0.25 0.25 0.25 0.25 0.25 0.25 0.25 0.25 0.25 0.25 0.25 0.25 0.25 0.25 0.25 0.25 0.25 0.25 0.25 0.25 0.25 0.25 0.25 0.25 0.25 0.25 0.25 0.25 0.25 0.25 0.25 0.25 0.25 0.25 0.25 0.25 0.25 0.25 0.25 0.25 0.25 0.25 0.25 0.25 0.25 0.25 0.25 0.25 0.25 0.25 0.25 0.25 0.25 0.25 0.25 0.25 0.25 0.25 0.25 0.25 0.25 0.25 0.25 0.25 0.25 0.25 0.25 0.25 0.25 0.25 0.25 0.25 0.25 0.25 0.25 0.25 0.25 0.25 0.25 0.25 0.25 0.25 0.25 0.25 0.25 0.25 0.25 0.25 0.25 0.25 0.25 0.25 0.25 0.25 0.25 0.25 0.25 0.25 0.25 0.25 0.25 0.25 0.25 0.25 0.25 0.25 0.25 0.25 0.25 0.25 0.25 0.25 0.25 0.25 0.25 0.25 0.25 0.25 0.25 0.25 0.25 0.25 0.25 0.25 0.25 0.25 0.25 0.25 0.25 0.25 0.25 0.25 0.25 0.25 0.25 0.25 0.25 0.25 0.25 0.25 0.25 0.25 0.25 0.25 0.25 0.5416666666666666 0.375 0.04166666666666666 0.04166666666666666 0.7243589743589743 0.2628205128205128 0.00641025641025641 0.00641025641025641 0.9659090909090909 0.01136363636363636 0.01136363636363636 0.01136363636363636 0.25 0.25 0.25 0.25 0.25 0.25 0.25 0.25 0.25 0.25 0.25 0.25 0.25 0.25 0.25 0.25 0.25 0.25 0.25 0.25 0.25 0.25 0.25 0.25 0.25 0.25 0.25 0.25 0.25 0.25 0.25 0.25 0.25 0.25 0.25 0.25 0.25 0.25 0.25 0.25 0.25 0.25 0.25 0.25 0.25 0.25 0.25 0.25 0.25 0.25 0.25 0.25 0.03571428571428571 0.8928571428571428 0.03571428571428571 0.03571428571428571 0.5586419753086419 0.4351851851851852 0.00308641975308642 0.00308641975308642 0.9758064516129032 0.008064516129032258 0.008064516129032258 0.008064516129032258 0.25 0.25 0.25 0.25 0.25 0.25 0.25 0.25 0.25 0.25 0.25 0.25 0.25 0.25 0.25 0.25 0.25 0.25 0.25 0.25 0.25 0.25 0.25 0.25 0.25 0.25 0.25 0.25 0.25 0.25 0.25 0.25 0.25 0.25 0.25 0.25 0.25 0.25 0.25 0.25 0.25 0.25 0.25 0.25 0.25 0.25 0.25 0.25 0.25 0.25 0.25 0.25 0.1388888888888889 0.8055555555555555 0.02777777777777778 0.02777777777777778 0.3576923076923077 0.6346153846153847 0.003846153846153846 0.003846153846153846 0.9375 0.02083333333333333 0.02083333333333333 0.02083333333333333 0.25 0.25 0.25 0.25 0.25 0.25 0.25 0.25 0.25 0.25 0.25 0.25 0.25 0.25 0.25 0.25 0.25 0.25 0.25 0.25 0.25 0.25 0.25 0.25 0.25 0.25 0.25 0.25 0.25 0.25 0.25 0.25 0.25 0.25 0.25 0.25 0.25 0.25 0.25 0.25 0.25 0.25 0.25 0.25 0.25 0.25 0.25 0.25 0.25 0.25 0.25 0.25 0.03125 0.90625 0.03125 0.03125 0.1830708661417323 0.812992125984252 0.001968503937007874 0.001968503937007874 0.8854166666666666 0.09375 0.01041666666666667 0.01041666666666667 0.25 0.25 0.25 0.25 0.25 0.25 0.25 0.25 0.25 0.25 0.25 0.25 0.25 0.25 0.25 0.25 0.25 0.25 0.25 0.25 0.25 0.25 0.25 0.25 0.25 0.25 0.25 0.25 0.25 0.25 0.25 0.25 0.25 0.25 0.25 0.25 0.25 0.25 0.25 0.25 0.25 0.25 0.25 0.25 0.25 0.25 0.25 0.25 0.9558823529411764 0.01470588235294118 0.01470588235294118 0.01470588235294118 0.95 0.01666666666666667 0.01666666666666667 0.01666666666666667 0.9821428571428571 0.005952380952380952 0.005952380952380952 0.005952380952380952 0.25 0.25 0.25 0.25 0.25 0.25 0.25 0.25 0.25 0.25 0.25 0.25 0.25 0.25 0.25 0.25 0.25 0.25 0.25 0.25 0.25 0.25 0.25 0.25 0.25 0.25 0.25 0.25 0.25 0.25 0.25 0.25 0.25 0.25 0.25 0.25 0.25 0.25 0.25 0.25 0.25 0.25 0.25 0.25 0.25 0.25 0.25 0.25 0.25 0.25 0.25 0.25 0.9318181818181819 0.02272727272727273 0.02272727272727273 0.02272727272727273 0.787037037037037 0.1944444444444444 0.009259259259259259 0.009259259259259259 0.7708333333333334 0.2208333333333333 0.004166666666666667 0.004166666666666667 0.625 0.125 0.125 0.125 0.25 0.25 0.25 0.25 0.25 0.25 0.25 0.25 0.625 0.125 0.125 0.125 0.25 0.25 0.25 0.25 0.25 0.25 0.25 0.25 0.25 0.25 0.25 0.25 0.25 0.25 0.25 0.25 0.25 0.25 0.25 0.25 0.25 0.25 0.25 0.25 0.25 0.25 0.25 0.25 0.25 0.25 0.25 0.25 0.25 0.25 0.25 0.25 0.8928571428571428 0.03571428571428571 0.03571428571428571 0.03571428571428571 0.5955882352941176 0.3897058823529412 0.007352941176470588 0.007352941176470588 0.6055555555555556 0.3833333333333334 0.005555555555555556 0.005555555555555556 0.25 0.25 0.25 0.25 0.25 0.25 0.25 0.25 0.25 0.25 0.25 0.25 0.25 0.25 0.25 0.25 0.25 0.25 0.25 0.25 0.25 0.25 0.25 0.25 0.25 0.25 0.25 0.25 0.25 0.25 0.25 0.25 0.25 0.25 0.25 0.25 0.25 0.25 0.25 0.25 0.25 0.25 0.25 0.25 0.25 0.25 0.25 0.25 0.25 0.25 0.25 0.25 0.8854166666666666 0.09375 0.01041666666666667 0.01041666666666667 0.9202127659574468 0.06914893617021277 0.005319148936170213 0.005319148936170213 0.9703389830508474 0.0211864406779661 0.00423728813559322 0.00423728813559322 0.625 0.125 0.125 0.125 0.25 0.25 0.25 0.25 0.25 0.25 0.25 0.25 0.25 0.25 0.25 0.25 0.25 0.25 0.25 0.25 0.25 0.25 0.25 0.25 0.25 0.25 0.25 0.25 0.25 0.25 0.25 0.25 0.25 0.25 0.25 0.25 0.25 0.25 0.25 0.25 0.25 0.25 0.25 0.25 0.25 0.25 0.25 0.25 0.25 0.25 0.25 0.25 0.003731343283582089 0.003731343283582089 0.9888059701492538 0.003731343283582089 0.0108695652173913 0.0108695652173913 0.9673913043478261 0.0108695652173913 0.015625 0.015625 0.953125 0.015625 0.01666666666666667 0.01666666666666667 0.95 0.01666666666666667 0.25 0.25 0.25 0.25 0.25 0.25 0.25 0.25 0.125 0.125 0.625 0.125 0.125 0.125 0.625 0.125 0.25 0.25 0.25 0.25 0.25 0.25 0.25 0.25 0.25 0.25 0.25 0.25 0.25 0.25 0.25 0.25 0.25 0.25 0.25 0.25 0.25 0.25 0.25 0.25 0.25 0.25 0.25 0.25 0.25 0.25 0.25 0.25 0.004310344827586207 0.004310344827586207 0.9870689655172413 0.004310344827586207 0.005434782608695652 0.005434782608695652 0.983695652173913 0.005434782608695652 0.01470588235294118 0.01470588235294118 0.9558823529411764 0.01470588235294118 0.0131578947368421 0.0131578947368421 0.9605263157894737 0.0131578947368421 0.25 0.25 0.25 0.25 0.25 0.25 0.25 0.25 0.25 0.25 0.25 0.25 0.25 0.25 0.25 0.25 0.25 0.25 0.25 0.25 0.25 0.25 0.25 0.25 0.25 0.25 0.25 0.25 0.25 0.25 0.25 0.25 0.25 0.25 0.25 0.25 0.25 0.25 0.25 0.25 0.25 0.25 0.25 0.25 0.25 0.25 0.25 0.25 0.005681818181818182 0.005681818181818182 0.9829545454545455 0.005681818181818182 0.0119047619047619 0.0119047619047619 0.9642857142857142 0.0119047619047619 0.02777777777777778 0.02777777777777778 0.9166666666666666 0.02777777777777778 0.01923076923076923 0.01923076923076923 0.9423076923076924 0.01923076923076923 0.25 0.25 0.25 0.25 0.25 0.25 0.25 0.25 0.25 0.25 0.25 0.25 0.125 0.125 0.625 0.125 0.25 0.25 0.25 0.25 0.25 0.25 0.25 0.25 0.25 0.25 0.25 0.25 0.25 0.25 0.25 0.25 0.25 0.25 0.25 0.25 0.25 0.25 0.25 0.25 0.25 0.25 0.25 0.25 0.25 0.25 0.25 0.25 0.002525252525252525 0.002525252525252525 0.6893939393939394 0.3055555555555556 0.004098360655737705 0.004098360655737705 0.8073770491803279 0.1844262295081967 0.0108695652173913 0.5326086956521739 0.4456521739130435 0.0108695652173913 0.005434782608695652 0.375 0.6141304347826086 0.005434782608695652 0.25 0.25 0.25 0.25 0.25 0.25 0.25 0.25 0.125 0.625 0.125 0.125 0.25 0.25 0.25 0.25 0.25 0.25 0.25 0.25 0.25 0.25 0.25 0.25 0.25 0.25 0.25 0.25 0.25 0.25 0.25 0.25 0.25 0.25 0.25 0.25 0.25 0.25 0.25 0.25 0.25 0.25 0.25 0.25 0.25 0.25 0.25 0.25 0.25 0.25 0.25 0.25 0.0625 0.0625 0.8125 0.0625 0.009615384615384616 0.009615384615384616 0.9711538461538463 0.009615384615384616 0.25 0.25 0.25 0.25 0.25 0.25 0.25 0.25 0.25 0.25 0.25 0.25 0.25 0.25 0.25 0.25 0.25 0.25 0.25 0.25 0.25 0.25 0.25 0.25 0.25 0.25 0.25 0.25 0.25 0.25 0.25 0.25 0.25 0.25 0.25 0.25 0.25 0.25 0.25 0.25 0.25 0.25 0.25 0.25 0.25 0.25 0.25 0.25 0.25 0.25 0.25 0.25 0.25 0.25 0.25 0.25 0.08333333333333333 0.08333333333333333 0.75 0.08333333333333333 0.00625 0.00625 0.9812500000000001 0.00625 0.25 0.25 0.25 0.25 0.25 0.25 0.25 0.25 0.25 0.25 0.25 0.25 0.25 0.25 0.25 0.25 0.25 0.25 0.25 0.25 0.25 0.25 0.25 0.25 0.25 0.25 0.25 0.25 0.25 0.25 0.25 0.25 0.25 0.25 0.25 0.25 0.25 0.25 0.25 0.25 0.25 0.25 0.25 0.25 0.25 0.25 0.25 0.25 0.25 0.25 0.25 0.25 0.25 0.25 0.25 0.25 0.08333333333333333 0.08333333333333333 0.75 0.08333333333333333 0.0108695652173913 0.0108695652173913 0.9673913043478261 0.0108695652173913 0.25 0.25 0.25 0.25 0.25 0.25 0.25 0.25 0.25 0.25 0.25 0.25 0.25 0.25 0.25 0.25 0.25 0.25 0.25 0.25 0.25 0.25 0.25 0.25 0.25 0.25 0.25 0.25 0.25 0.25 0.25 0.25 0.25 0.25 0.25 0.25 0.25 0.25 0.25 0.25 0.25 0.25 0.25 0.25 0.25 0.25 0.25 0.25 0.25 0.25 0.25 0.25 0.25 0.25 0.25 0.25 0.0625 0.0625 0.8125 0.0625 0.00641025641025641 0.00641025641025641 0.9807692307692307 0.00641025641025641 0.25 0.25 0.25 0.25 0.25 0.25 0.25 0.25 0.25 0.25 0.25 0.25 0.25 0.25 0.25 0.25 0.25 0.25 0.25 0.25 0.25 0.25 0.25 0.25 0.25 0.25 0.25 0.25 0.25 0.25 0.25 0.25 0.25 0.25 0.25 0.25 0.25 0.25 0.25 0.25 0.25 0.25 0.25 0.25 0.25 0.25 0.25 0.25 0.25 0.25 0.25 0.25 0.25 0.25 0.25 0.25 0.25 0.25 0.25 0.25 0.25 0.25 0.25 0.25 0.25 0.25 0.25 0.25 0.25 0.25 0.25 0.25 0.25 0.25 0.25 0.25 0.25 0.25 0.25 0.25 0.25 0.25 0.25 0.25 0.25 0.25 0.25 0.25 0.25 0.25 0.25 0.25 0.25 0.25 0.25 0.25 0.25 0.25 0.25 0.25 0.25 0.25 0.25 0.25 0.25 0.25 0.25 0.25 0.25 0.25 0.25 0.25 0.25 0.25 0.25 0.25 0.25 0.25 0.25 0.25 0.25 0.25 0.25 0.25 0.25 0.25 0.25 0.25 0.25 0.25 0.25 0.25 0.25 0.25 0.25 0.25 0.25 0.25 0.25 0.25 0.25 0.25 0.25 0.25 0.25 0.25 0.25 0.25 0.25 0.25 0.25 0.25 0.25 0.25 0.25 0.25 0.25 0.25 0.25 0.25 0.25 0.25 0.25 0.25 0.25 0.25 0.25 0.25 0.25 0.25 0.25 0.25 0.25 0.25 0.25 0.25 0.25 0.25 0.25 0.25 0.25 0.25 0.25 0.25 0.25 0.25 0.25 0.25 0.25 0.25 0.25 0.25 0.25 0.25 0.25 0.25 0.25 0.25 0.25 0.25 0.25 0.25 0.25 0.25 0.25 0.25 0.25 0.25 0.25 0.25 0.25 0.25 0.25 0.25 0.25 0.25 0.25 0.25 0.25 0.25 0.25 0.25 0.25 0.25 0.25 0.25 0.25 0.25 0.25 0.25 0.25 0.25 0.25 0.25 0.25 0.25 0.25 0.25 0.25 0.25 0.25 0.25 0.25 0.25 0.25 0.25 0.25 0.25 0.25 0.25 0.25 0.25 0.25 0.25 0.25 0.25 0.25 0.25 0.25 0.25 0.25 0.25 0.25 0.25 0.25 0.25 0.25 0.25 0.25 0.25 0.25 0.25 0.25 0.25 0.25 0.25 0.25 0.25 0.25 0.25 0.25 0.25 0.25 0.25 0.25 0.25 0.25 0.25 0.25 0.25 0.25 0.25 0.25 0.25 0.25 0.25 0.25 0.25 0.25 0.25 0.25 0.25 0.25 0.25 0.25 0.25 0.25 0.25 0.25 0.25 0.25 0.25 0.25 0.25 0.25 0.25 0.25 0.25 0.25 0.25 0.25 0.25 0.25 0.25 0.25 0.25 0.25 0.25 0.25 0.25 0.25 0.25 0.25 0.25 0.25 0.25 0.25 0.25 0.25 0.25 0.25 0.25 0.25 0.25 0.25 0.25 0.25 0.25 0.25 0.25 0.25 0.25 0.25 0.25 0.25 0.25 0.25 0.25 0.25 0.25 0.25 0.25 0.25 0.25 0.25 0.25 0.25 0.25 0.25 0.25 0.25 0.25 0.25 0.25 0.25 0.25 0.25 0.25 0.25 0.25 0.25 0.25 0.25 0.25 0.25 0.25 0.25 0.25 0.25 0.25 0.25 0.25 0.25 0.25 0.25 0.25 0.25 0.25 0.25 0.25 0.25 0.25 0.25 0.25 0.25 0.25 0.25 0.25 0.25 0.25 0.25 0.25 0.25 0.25 0.25 0.25 0.25 0.25 0.25 0.25 0.25 0.25 0.25 0.25 0.25 0.25 0.25 0.25 0.25 0.25 0.25 0.25 0.25 0.25 0.25 0.25 0.25 0.25 0.25 0.25 0.25 0.25 0.25 0.25 0.25 0.25 0.25 0.25 0.25 0.25 0.25 0.25 0.25 0.25 0.25 0.25 0.25 0.25 0.25 0.25 0.25 0.25 0.25 0.25 0.25 0.25 0.25 0.25 0.25 0.25 0.25 0.25 0.25 0.25 0.25 0.25 0.25 0.25 0.25 0.25 0.25 0.25 0.25 0.25 0.25 0.25 0.25 0.25 0.25 0.25 0.25 0.25 0.25 0.25 0.25 0.25 0.25 0.25 0.25 0.25 0.25 0.25 0.25 0.25 0.25 0.25 0.25 0.25 0.25 0.25 0.25 0.25 0.25 0.25 0.25 0.25 0.25 0.25 0.25 0.25 0.25 0.25 0.25 0.25 0.25 0.25 0.25 0.25 0.25 0.25 0.25 0.25 0.25 0.25 0.25 0.25 0.25 0.25 0.25 0.25 0.25 0.25 0.25 0.25 0.25 0.25 0.25 0.25 0.25 0.25 0.25 0.25 0.25 0.25 0.25 0.25 0.25 0.25 0.25 0.25 0.25 0.25 0.25 0.25 0.25 0.25 0.25 0.25 0.25 0.25 0.25 0.25 0.25 0.25 0.25 0.25 0.25 0.25 0.25 0.25 0.25 0.25 0.25 0.25 0.25 0.25 0.25 0.25 0.25 0.25 0.25 0.25 0.25 0.25 0.25 0.25 0.25 0.25 0.25 0.25 0.25 0.25 0.25 0.25 0.25 0.25 0.25 0.25 0.25 0.25 0.25 0.25 0.25 0.25 0.25 0.25 0.25 0.25 0.25 0.25 0.25 0.25 0.25 0.25 0.25 0.25 0.25 0.25 0.25 0.25 0.25 0.25 0.25 0.25 0.25 0.25 0.25 0.25 0.25 0.25 0.25 0.25 0.25 0.25 0.25 0.25 0.25 0.25 0.25 0.25 0.25 0.25 0.25 0.25 0.25 0.25 0.25 0.25 0.25 0.25 0.25 0.25 0.25 0.25 0.25 0.25 0.25 0.25 0.25 0.25 0.25 0.25 0.25 0.25 0.25 0.25 0.25 0.25 0.25 0.25 0.25 0.25 0.25 0.25 0.25 0.25 0.25 0.25 0.25 0.25 0.25 0.25 0.25 0.25 0.25 0.25 0.25 0.25 0.25 0.25 0.25 0.25 0.25 0.25 0.25 0.25 0.25 0.25 0.25 0.25 0.25 0.25 0.25 0.25 0.25 0.25 0.25 0.25 0.25 0.25 0.25 0.25 0.25 0.25 0.25 0.25 0.25 0.25 0.25 0.25 0.25 0.25 0.25 0.25 0.25 0.25 0.25 0.25 0.25 0.25 0.25 0.25 0.25 0.25 0.25 0.25 0.25 0.25 0.25 0.25 0.25 0.25 0.25 0.25 0.25 0.25 0.25 0.25 0.25 0.25 0.25 0.25 0.25 0.25 0.25 0.25 0.25 0.25 0.25 0.25 0.25 0.25 0.25 0.25 0.25 0.25 0.25 0.25 0.25 0.25 0.25 0.25 0.25 0.25 0.25 0.25 0.25 0.25 0.25 0.25 0.25 0.25 0.25 0.25 0.25 0.25 0.25 0.25 0.25 0.25 0.25 0.25 0.25 0.25 0.25 0.25 0.25 0.25 0.25 0.25 0.25 0.25 0.25 0.25 0.25 0.25 0.25 0.25 0.25 0.25 0.25 0.25 0.25 0.25 0.25 0.25 0.25 0.25 0.25 0.25 0.25 0.25 0.25 0.25 0.25 0.25 0.25 0.25 0.25 0.25 0.25 0.25 0.25 0.25 0.25 0.25 0.25 0.25 0.25 0.25 0.25 0.25 0.25 0.25 0.25 0.25 0.25 0.25 0.25 0.25 0.25 0.25 0.25 0.25 0.25 0.25 0.25 0.25 0.25 0.25 0.25 0.25 0.25 0.25 0.25 0.25 0.25 0.25 0.25 0.25 0.25 0.25 0.25 0.25 0.25 0.25 0.25 0.25 0.25 0.25 0.25 0.25 0.25 0.25 0.25 0.25 0.25 0.25 0.25 0.25 0.25 0.25 0.25 0.25 0.25 0.25 0.25 0.25 0.25 0.25 0.25 0.25 0.25 0.25 0.25 0.25 0.25 0.25 0.25 0.25 0.25 0.25 0.25 0.25 0.25 0.25 0.25 0.25 0.25 0.25 0.25 0.25 0.25 0.25 0.25 0.25 0.25 0.25 0.25 0.25 0.25 0.25 0.25 0.25 0.25 0.25 0.25 0.25 0.25 0.25 0.25 0.25 0.25 0.25 0.25 0.25 0.25 0.25 0.25 0.25 0.25 0.25 0.25 0.25 0.25 0.25 0.25 0.25 0.25 0.25 0.25 0.25 0.25 0.25 0.25 0.25 0.25 0.25 0.25 0.25 0.25 0.25 0.25 0.25 0.25 0.25 0.25 0.25 0.25 0.25 0.25 0.25 0.25 0.25 0.25 0.25 0.25 0.25 0.25 0.25 0.25 0.25 0.25 0.25 0.25 0.25 0.25 0.25 0.25 0.25 0.25 0.25 0.25 0.25 0.25 0.25 0.25 0.25 0.25 0.25 0.25 0.25 0.25 0.25 0.25 0.25 0.25 0.25 0.25 0.25 0.25 0.25 0.25 0.25 0.25 0.25 0.25 0.25 0.25 0.25 0.25 0.25 0.25 0.25 0.25 0.25 0.25 0.25 0.25 0.25 0.25 0.25 0.25 0.25 0.25 0.25 0.25 0.25 0.25 0.25 0.25 0.25 0.25 0.25 0.25 0.25 0.25 0.25 0.25 0.25 0.25 0.25 0.25 0.25 0.25 0.25 0.003333333333333334 0.5633333333333334 0.43 0.003333333333333334 0.00641025641025641 0.5705128205128205 0.4166666666666666 0.00641025641025641 0.009615384615384616 0.08653846153846154 0.8942307692307693 0.009615384615384616 0.125 0.125 0.625 0.125 0.25 0.25 0.25 0.25 0.25 0.25 0.25 0.25 0.25 0.25 0.25 0.25 0.25 0.25 0.25 0.25 0.25 0.25 0.25 0.25 0.25 0.25 0.25 0.25 0.25 0.25 0.25 0.25 0.25 0.25 0.25 0.25 0.25 0.25 0.25 0.25 0.25 0.25 0.25 0.25 0.25 0.25 0.25 0.25 0.25 0.25 0.25 0.25 0.003164556962025316 0.180379746835443 0.8132911392405063 0.003164556962025316 0.006578947368421052 0.5855263157894737 0.4013157894736842 0.006578947368421052 0.006097560975609756 0.1280487804878049 0.8597560975609756 0.006097560975609756 0.25 0.25 0.25 0.25 0.25 0.25 0.25 0.25 0.25 0.25 0.25 0.25 0.25 0.25 0.25 0.25 0.25 0.25 0.25 0.25 0.25 0.25 0.25 0.25 0.25 0.25 0.25 0.25 0.25 0.25 0.25 0.25 0.25 0.25 0.25 0.25 0.25 0.25 0.25 0.25 0.25 0.25 0.25 0.25 0.25 0.25 0.25 0.25 0.25 0.25 0.25 0.25 0.003676470588235294 0.1948529411764706 0.7977941176470588 0.003676470588235294 0.008928571428571428 0.6160714285714285 0.3660714285714285 0.008928571428571428 0.00641025641025641 0.6217948717948718 0.3653846153846154 0.00641025641025641 0.25 0.25 0.25 0.25 0.25 0.25 0.25 0.25 0.25 0.25 0.25 0.25 0.25 0.25 0.25 0.25 0.25 0.25 0.25 0.25 0.25 0.25 0.25 0.25 0.25 0.25 0.25 0.25 0.25 0.25 0.25 0.25 0.25 0.25 0.25 0.25 0.25 0.25 0.25 0.25 0.25 0.25 0.25 0.25 0.25 0.25 0.25 0.25 0.25 0.25 0.25 0.25 0.003125 0.553125 0.303125 0.140625 0.004629629629629629 0.6342592592592592 0.1342592592592592 0.2268518518518518 0.005434782608695652 0.005434782608695652 0.9619565217391304 0.02717391304347826 0.25 0.25 0.25 0.25 0.25 0.25 0.25 0.25 0.125 0.125 0.625 0.125 0.25 0.25 0.25 0.25 0.25 0.25 0.25 0.25 0.25 0.25 0.25 0.25 0.25 0.25 0.25 0.25 0.25 0.25 0.25 0.25 0.25 0.25 0.25 0.25 0.25 0.25 0.25 0.25 0.25 0.25 0.25 0.25 0.25 0.25 0.25 0.25 0.25 0.25 0.25 0.25 0.004901960784313725 0.2205882352941176 0.7696078431372549 0.004901960784313725 0.01041666666666667 0.1354166666666667 0.84375 0.01041666666666667 0.01041666666666667 0.01041666666666667 0.96875 0.01041666666666667 0.25 0.25 0.25 0.25 0.02083333333333333 0.9375 0.02083333333333333 0.02083333333333333 0.03125 0.65625 0.28125 0.03125 0.25 0.25 0.25 0.25 0.25 0.25 0.25 0.25 0.25 0.25 0.25 0.25 0.125 0.125 0.625 0.125 0.125 0.125 0.625 0.125 0.25 0.25 0.25 0.25 0.25 0.25 0.25 0.25 0.25 0.25 0.25 0.25 0.25 0.25 0.25 0.25 0.25 0.25 0.25 0.25 0.002747252747252747 0.002747252747252747 0.9587912087912088 0.03571428571428572 0.0078125 0.0078125 0.6953125 0.2890625 0.008928571428571428 0.008928571428571428 0.1517857142857143 0.8303571428571428 0.25 0.25 0.25 0.25 0.03571428571428571 0.03571428571428571 0.8928571428571428 0.03571428571428571 0.05 0.05 0.8500000000000001 0.05 0.08333333333333333 0.08333333333333333 0.4166666666666666 0.4166666666666666 0.25 0.25 0.25 0.25 0.08333333333333333 0.08333333333333333 0.75 0.08333333333333333 0.25 0.25 0.25 0.25 0.25 0.25 0.25 0.25 0.25 0.25 0.25 0.25 0.25 0.25 0.25 0.25 0.25 0.25 0.25 0.25 0.25 0.25 0.25 0.25 0.25 0.25 0.25 0.25 0.003731343283582089 0.003731343283582089 0.5708955223880597 0.4216417910447761 0.01388888888888889 0.01388888888888889 0.2361111111111111 0.736111111111111 0.01923076923076923 0.01923076923076923 0.01923076923076923 0.9423076923076924 0.25 0.25 0.25 0.25 0.03125 0.03125 0.90625 0.03125 0.0625 0.0625 0.8125 0.0625 0.25 0.25 0.25 0.25 0.25 0.25 0.25 0.25 0.25 0.25 0.25 0.25 0.25 0.25 0.25 0.25 0.25 0.25 0.25 0.25 0.25 0.25 0.25 0.25 0.25 0.25 0.25 0.25 0.25 0.25 0.25 0.25 0.25 0.25 0.25 0.25 0.25 0.25 0.25 0.25 0.002358490566037736 0.002358490566037736 0.5212264150943396 0.4740566037735849 0.008620689655172414 0.008620689655172414 0.1120689655172414 0.8706896551724138 0.0078125 0.0078125 0.0078125 0.9765625 0.25 0.25 0.25 0.25 0.0131578947368421 0.0131578947368421 0.9605263157894737 0.0131578947368421 0.25 0.25 0.25 0.25 0.25 0.25 0.25 0.25 0.25 0.25 0.25 0.25 0.0625 0.0625 0.8125 0.0625 0.25 0.25 0.25 0.25 0.25 0.25 0.25 0.25 0.25 0.25 0.25 0.25 0.125 0.125 0.625 0.125 0.25 0.25 0.25 0.25 0.25 0.25 0.25 0.25 0.25 0.25 0.25 0.25 0.25 0.25 0.25 0.25 0.125 0.125 0.125 0.625 0.009615384615384616 0.009615384615384616 0.009615384615384616 0.9711538461538463 0.08333333333333333 0.08333333333333333 0.08333333333333333 0.75 0.25 0.25 0.25 0.25 0.25 0.25 0.25 0.25 0.25 0.25 0.25 0.25 0.25 0.25 0.25 0.25 0.25 0.25 0.25 0.25 0.25 0.25 0.25 0.25 0.25 0.25 0.25 0.25 0.25 0.25 0.25 0.25 0.25 0.25 0.25 0.25 0.25 0.25 0.25 0.25 0.25 0.25 0.25 0.25 0.25 0.25 0.25 0.25 0.25 0.25 0.25 0.25 0.25 0.25 0.25 0.25 0.005208333333333333 0.005208333333333333 0.005208333333333333 0.984375 0.125 0.125 0.125 0.625 0.25 0.25 0.25 0.25 0.25 0.25 0.25 0.25 0.25 0.25 0.25 0.25 0.25 0.25 0.25 0.25 0.25 0.25 0.25 0.25 0.25 0.25 0.25 0.25 0.25 0.25 0.25 0.25 0.25 0.25 0.25 0.25 0.25 0.25 0.25 0.25 0.25 0.25 0.25 0.25 0.25 0.25 0.25 0.25 0.25 0.25 0.25 0.25 0.25 0.25 0.25 0.25 0.25 0.25 0.25 0.25 0.01 0.01 0.01 0.97 0.25 0.25 0.25 0.25 0.25 0.25 0.25 0.25 0.25 0.25 0.25 0.25 0.25 0.25 0.25 0.25 0.25 0.25 0.25 0.25 0.25 0.25 0.25 0.25 0.25 0.25 0.25 0.25 0.25 0.25 0.25 0.25 0.25 0.25 0.25 0.25 0.25 0.25 0.25 0.25 0.25 0.25 0.25 0.25 0.25 0.25 0.25 0.25 0.25 0.25 0.25 0.25 0.25 0.25 0.25 0.25 0.04166666666666666 0.04166666666666666 0.04166666666666666 0.875 0.004098360655737705 0.004098360655737705 0.004098360655737705 0.9877049180327869 0.25 0.25 0.25 0.25 0.25 0.25 0.25 0.25 0.25 0.25 0.25 0.25 0.25 0.25 0.25 0.25 0.25 0.25 0.25 0.25 0.25 0.25 0.25 0.25 0.25 0.25 0.25 0.25 0.25 0.25 0.25 0.25 0.25 0.25 0.25 0.25 0.25 0.25 0.25 0.25 0.25 0.25 0.25 0.25 0.25 0.25 0.25 0.25 0.25 0.25 0.25 0.25 0.015625 0.953125 0.015625 0.015625 0.01923076923076923 0.9423076923076924 0.01923076923076923 0.01923076923076923 0.125 0.625 0.125 0.125 0.25 0.25 0.25 0.25 0.25 0.25 0.25 0.25 0.25 0.25 0.25 0.25 0.25 0.25 0.25 0.25 0.25 0.25 0.25 0.25 0.25 0.25 0.25 0.25 0.25 0.25 0.25 0.25 0.25 0.25 0.25 0.25 0.25 0.25 0.25 0.25 0.25 0.25 0.25 0.25 0.25 0.25 0.25 0.25 0.25 0.25 0.25 0.25 0.25 0.25 0.25 0.25 0.01 0.97 0.01 0.01 0.02083333333333333 0.9375 0.02083333333333333 0.02083333333333333 0.125 0.625 0.125 0.125 0.25 0.25 0.25 0.25 0.25 0.25 0.25 0.25 0.25 0.25 0.25 0.25 0.25 0.25 0.25 0.25 0.25 0.25 0.25 0.25 0.25 0.25 0.25 0.25 0.25 0.25 0.25 0.25 0.25 0.25 0.25 0.25 0.25 0.25 0.25 0.25 0.25 0.25 0.25 0.25 0.25 0.25 0.25 0.25 0.25 0.25 0.25 0.25 0.25 0.25 0.25 0.25 0.01 0.97 0.01 0.01 0.03571428571428571 0.8928571428571428 0.03571428571428571 0.03571428571428571 0.25 0.25 0.25 0.25 0.25 0.25 0.25 0.25 0.25 0.25 0.25 0.25 0.25 0.25 0.25 0.25 0.25 0.25 0.25 0.25 0.25 0.25 0.25 0.25 0.25 0.25 0.25 0.25 0.25 0.25 0.25 0.25 0.25 0.25 0.25 0.25 0.25 0.25 0.25 0.25 0.25 0.25 0.25 0.25 0.25 0.25 0.25 0.25 0.25 0.25 0.25 0.25 0.25 0.25 0.25 0.25 0.00625 0.9812500000000001 0.00625 0.00625 0.025 0.925 0.025 0.025 0.25 0.25 0.25 0.25 0.25 0.25 0.25 0.25 0.25 0.25 0.25 0.25 0.25 0.25 0.25 0.25 0.25 0.25 0.25 0.25 0.25 0.25 0.25 0.25 0.25 0.25 0.25 0.25 0.25 0.25 0.25 0.25 0.25 0.25 0.25 0.25 0.25 0.25 0.25 0.25 0.25 0.25 0.25 0.25 0.25 0.25 0.25 0.25 0.25 0.25 0.25 0.25 0.25 0.25 0.25 0.25</probabilities>
		</cpt>
		<cpt id="total_UPDRS">
			<state id="s1_below_22" />
			<state id="s2_22_35" />
			<state id="s3_35_50" />
			<state id="s4_50_up" />
			<parents>motor_UPDRS PPE</parents>
			<probabilities>0.9210079275198189 0.07842582106455266 0.0002831257078142696 0.0002831257078142696 0.9525602409638555 0.04593373493975904 0.0007530120481927711 0.0007530120481927711 0.8500000000000001 0.05 0.05 0.05 0.625 0.125 0.125 0.125 0.2775720164609053 0.7220164609053498 0.000205761316872428 0.000205761316872428 0.1668 0.8324 0.0004 0.0004 0.002688172043010753 0.9919354838709679 0.002688172043010753 0.002688172043010753 0.01923076923076923 0.9423076923076924 0.01923076923076923 0.01923076923076923 0.0001927525057825752 0.478218966846569 0.5067463377023901 0.01484194294525829 0.0003109452736318408 0.5749378109452736 0.4182213930348259 0.006529850746268656 0.002777777777777778 0.913888888888889 0.08055555555555556 0.002777777777777778 0.0125 0.7125 0.2625 0.0125 0.00125 0.00125 0.83125 0.16625 0.0008992805755395684 0.0008992805755395684 0.4577338129496403 0.5404676258992807 0.008620689655172414 0.008620689655172414 0.7672413793103449 0.2155172413793103 0.05 0.05 0.8500000000000001 0.05</probabilities>
		</cpt>
		<cpt id="Jitter___">
			<state id="s1_below_0" />
			<state id="s2_0_0" />
			<state id="s3_0_0" />
			<state id="s4_0_up" />
			<parents>Jitter_Abs_</parents>
			<probabilities>0.9978675136116152 0.002041742286751361 4.537205081669691e-05 4.537205081669691e-05 0.5990028490028491 0.3881766381766382 0.0007122507122507123 0.01210826210826211 0.02272727272727273 0.6590909090909091 0.2954545454545455 0.02272727272727273 0.03571428571428571 0.4642857142857142 0.3214285714285714 0.1785714285714285</probabilities>
		</cpt>
		<cpt id="Shimmer_APQ3">
			<state id="s1_below_0" />
			<state id="s2_0_0" />
			<state id="s3_0_0" />
			<state id="s4_0_up" />
			<parents>Shimmer_dB_</parents>
			<probabilities>0.999863188617293 4.560379423568041e-05 4.560379423568041e-05 4.560379423568041e-05 0.8494318181818182 0.1486742424242424 0.000946969696969697 0.000946969696969697 0.1014851485148515 0.8341584158415841 0.06188118811881188 0.002475247524752475 0.0078125 0.5078125 0.3828125 0.1015625</probabilities>
		</cpt>
		<cpt id="Shimmer_APQ5">
			<state id="s1_below_0" />
			<state id="s2_0_0" />
			<state id="s3_0_0" />
			<state id="s4_0_up" />
			<parents>Shimmer_APQ3</parents>
			<probabilities>0.9891969909027292 0.01071553533939818 4.37368789363191e-05 4.37368789363191e-05 0.06474820143884892 0.6258992805755396 0.2589928057553957 0.05035971223021583 0.0131578947368421 0.2763157894736842 0.06578947368421052 0.6447368421052632 0.0625 0.3125 0.0625 0.5625</probabilities>
		</cpt>
		<cpt id="RPDE">
			<state id="s1_below_0" />
			<state id="s2_0_0" />
			<state id="s3_0_0" />
			<state id="s4_0_up" />
			<parents>subject_ PPE</parents>
			<probabilities>0.0002145922746781116 0.3375536480686695 0.6620171673819742 0.0002145922746781116 0.0004780114722753346 0.06548757170172084 0.9316443594646271 0.002390057361376673 0.004807692307692308 0.004807692307692308 0.9663461538461539 0.02403846153846154 0.03571428571428571 0.03571428571428571 0.4642857142857142 0.4642857142857142 0.0003793626707132018 0.6043247344461306 0.3949165402124431 0.0003793626707132018 0.001811594202898551 0.05253623188405797 0.9438405797101449 0.001811594202898551 0.0625 0.0625 0.8125 0.0625 0.125 0.125 0.625 0.125 0.003924284395198522 0.3501846722068329 0.6456602031394275 0.0002308402585410896 0.0003531073446327684 0.08509887005649718 0.9141949152542372 0.0003531073446327684 0.004166666666666667 0.004166666666666667 0.9874999999999999 0.004166666666666667 0.03571428571428571 0.03571428571428571 0.75 0.1785714285714285 0.0003633720930232558 0.2823401162790697 0.7154796511627907 0.001816860465116279 0.000373134328358209 0.1332089552238806 0.8496268656716418 0.0167910447761194 0.002475247524752475 0.002475247524752475 0.9727722772277227 0.02227722772277228 0.01041666666666667 0.01041666666666667 0.96875 0.01041666666666667</probabilities>
		</cpt>
	</nodes>
	<extensions>
		<genie version="1.0" app="GeNIe 4.1.4109.0 ACADEMIC" name="parkinsons_updrs">
			<node id="subject_">
				<name>subject#</name>
				<interior color="e5f6f7" />
				<outline color="000080" />
				<font color="000000" name="Arial" size="8" />
				<position>961 41 1033 89</position>
				<barchart active="true" width="128" height="90" />
			</node>
			<node id="age">
				<name>age</name>
				<interior color="e5f6f7" />
				<outline color="000080" />
				<font color="000000" name="Arial" size="8" />
				<position>681 710 753 758</position>
				<barchart active="true" width="128" height="90" />
			</node>
			<node id="sex">
				<name>sex</name>
				<interior color="e5f6f7" />
				<outline color="000080" />
				<font color="000000" name="Arial" size="8" />
				<position>780 413 852 461</position>
				<barchart active="true" width="128" height="64" />
			</node>
			<node id="test_time">
				<name>test_time</name>
				<interior color="e5f6f7" />
				<outline color="000080" />
				<font color="000000" name="Arial" size="8" />
				<position>50 583 122 631</position>
				<barchart active="true" width="128" height="90" />
			</node>
			<node id="motor_UPDRS">
				<name>motor_UPDRS</name>
				<interior color="e5f6f7" />
				<outline color="000080" />
				<font color="000000" name="Arial" size="8" />
				<position>433 680 505 728</position>
				<barchart active="true" width="187" height="90" />
			</node>
			<node id="total_UPDRS">
				<name>total_UPDRS</name>
				<interior color="e5f6f7" />
				<outline color="000080" />
				<font color="000000" name="Arial" size="8" />
				<position>1513 114 1585 162</position>
				<barchart active="true" width="128" height="90" />
			</node>
			<node id="Jitter___">
				<name>Jitter(%)</name>
				<interior color="e5f6f7" />
				<outline color="000080" />
				<font color="000000" name="Arial" size="8" />
				<position>835 214 907 262</position>
				<barchart active="true" width="128" height="90" />
			</node>
			<node id="Jitter_Abs_">
				<name>Jitter(Abs)</name>
				<interior color="e5f6f7" />
				<outline color="000080" />
				<font color="000000" name="Arial" size="8" />
				<position>737 38 809 86</position>
				<barchart active="true" width="128" height="90" />
			</node>
			<node id="Jitter_RAP">
				<name>Jitter:RAP</name>
				<interior color="e5f6f7" />
				<outline color="000080" />
				<font color="000000" name="Arial" size="8" />
				<position>46 406 118 454</position>
				<barchart active="true" width="128" height="90" />
			</node>
			<node id="Jitter_PPQ5">
				<name>Jitter:PPQ5</name>
				<interior color="e5f6f7" />
				<outline color="000080" />
				<font color="000000" name="Arial" size="8" />
				<position>92 780 164 828</position>
				<barchart active="true" width="128" height="90" />
			</node>
			<node id="Jitter_DDP">
				<name>Jitter:DDP</name>
				<interior color="e5f6f7" />
				<outline color="000080" />
				<font color="000000" name="Arial" size="8" />
				<position>73 72 145 120</position>
				<barchart active="true" width="128" height="90" />
			</node>
			<node id="Shimmer">
				<name>Shimmer</name>
				<interior color="e5f6f7" />
				<outline color="000080" />
				<font color="000000" name="Arial" size="8" />
				<position>264 48 336 96</position>
				<barchart active="true" width="128" height="90" />
			</node>
			<node id="Shimmer_dB_">
				<name>Shimmer(dB)</name>
				<interior color="e5f6f7" />
				<outline color="000080" />
				<font color="000000" name="Arial" size="8" />
				<position>422 30 494 78</position>
				<barchart active="true" width="128" height="90" />
			</node>
			<node id="Shimmer_APQ3">
				<name>Shimmer:APQ3</name>
				<interior color="e5f6f7" />
				<outline color="000080" />
				<font color="000000" name="Arial" size="8" />
				<position>595 50 667 98</position>
				<barchart active="true" width="128" height="90" />
			</node>
			<node id="Shimmer_APQ5">
				<name>Shimmer:APQ5</name>
				<interior color="e5f6f7" />
				<outline color="000080" />
				<font color="000000" name="Arial" size="8" />
				<position>988 300 1060 348</position>
				<barchart active="true" width="128" height="90" />
			</node>
			<node id="Shimmer_APQ11">
				<name>Shimmer:APQ11</name>
				<interior color="e5f6f7" />
				<outline color="000080" />
				<font color="000000" name="Arial" size="8" />
				<position>510 817 582 865</position>
				<barchart active="true" width="180" height="90" />
			</node>
			<node id="Shimmer_DDA">
				<name>Shimmer:DDA</name>
				<interior color="e5f6f7" />
				<outline color="000080" />
				<font color="000000" name="Arial" size="8" />
				<position>1196 282 1268 330</position>
				<barchart active="true" width="128" height="90" />
			</node>
			<node id="NHR">
				<name>NHR</name>
				<interior color="e5f6f7" />
				<outline color="000080" />
				<font color="000000" name="Arial" size="8" />
				<position>191 293 263 341</position>
				<barchart active="true" width="128" height="90" />
			</node>
			<node id="HNR">
				<name>HNR</name>
				<interior color="e5f6f7" />
				<outline color="000080" />
				<font color="000000" name="Arial" size="8" />
				<position>543 304 615 352</position>
				<barchart active="true" width="128" height="90" />
			</node>
			<node id="RPDE">
				<name>RPDE</name>
				<interior color="e5f6f7" />
				<outline color="000080" />
				<font color="000000" name="Arial" size="8" />
				<position>1206 71 1278 119</position>
				<barchart active="true" width="128" height="90" />
			</node>
			<node id="DFA">
				<name>DFA</name>
				<interior color="e5f6f7" />
				<outline color="000080" />
				<font color="000000" name="Arial" size="8" />
				<position>833 625 905 673</position>
				<barchart active="true" width="128" height="90" />
			</node>
			<node id="PPE">
				<name>PPE</name>
				<interior color="e5f6f7" />
				<outline color="000080" />
				<font color="000000" name="Arial" size="8" />
				<position>720 560 792 608</position>
				<barchart active="true" width="128" height="90" />
			</node>
			<textbox>
				<caption>Input file: parkinsons_updrs.data\nData rows: 5875\nElapsed time: 6.375s\n\nLearning algorithm: Bayesian Search\nAlgorithm parameters:\nIterations: 20\nMax parent count: 8\nSample size: 50\nLink probability: 0.1\nPrior link probability: 0.001\nSeed: 0\nMax search time: 0\nBackground knowledge was provided:\n  forced arcs: 3\n  nodes assigned to tiers: 1\n\nBest score in iteration 18: -51110.3\nEM Log Likelihood: -49221.1</caption>
				<font color="000000" name="Arial" size="8" align="center" />
				<position>307 222 494 488</position>
			</textbox>
		</genie>
	</extensions>
</smile>
